1.011801955887557253e-01 5.208337235006228749e-02 2.488059255628748828e-02 7.597721743580284140e-03 -1.107380598288876077e-02 -3.497627952507742499e-02 1.273117049909894792e-02 -5.677141747671000244e-02 -4.750409481211512186e-02 7.475772918925333022e-02
-1.068310873170257502e-03 1.287627606632964043e-02 -1.779856007074479343e-02 -1.549315689720817679e-02 -2.251525941063128866e-02 7.912800525620584599e-03 -7.493030534941952196e-03 -6.602636211579666382e-03 3.449587883291106716e-02 5.163895719555719466e-02
-2.672059401746564380e-02 -3.189002439416968333e-03 -5.959873601167646993e-03 -1.376327719130548410e-01 5.670562563522234603e-03 3.465898579848407102e-01 -3.521956427402070378e-02 1.729832464558360471e-03 -9.467008709042987191e-02 -3.917940478761206685e-02
-1.223500164982343694e-02 2.332744100177562736e-03 3.975642555576359982e-02 -1.223279902285038384e-02 -1.361302640423963164e-02 3.354900551712879792e-02 1.392027463893285959e-02 4.645961304336805424e-03 3.614275480683919878e-02 3.787807399477592651e-02
1.053067832228768951e-02 -2.221354941341023917e-02 -1.137514744403734374e-02 2.585638230222204320e-02 -7.734716435836158817e-03 5.814476453353674412e-02 -5.190652241065818462e-02 -4.218962404177551383e-03 7.366763393460497300e-02 -1.499216843024083964e-02
6.140108131771846930e-03 -1.409729808747738240e-02 -2.090730932305313525e-02 1.206026712092971845e-03 -1.738808503905505884e-02 -1.760573910095014974e-02 1.060551114903533210e-01 2.529766489494751289e-03 -2.616255882939605079e-02 -1.854142598534408437e-02
-4.905037831898136080e-02 -2.476828365971589507e-02 9.492736522139627597e-02 -1.636946219666082086e-02 -8.120934650823879997e-02 1.203519059847407979e-01 -5.850782620191925104e-02 1.981501498126014837e-02 -2.812245243333698352e-02 -4.455300054134823939e-03
-3.916152798641972001e-03 1.143567874207926105e-01 -4.045729208981761055e-02 -3.401275605923317902e-02 5.128797566718575757e-02 -7.791029650232733639e-02 -6.802248231922565676e-03 1.901399167237999635e-02 2.044703612996676481e-02 1.756252725820785579e-02
1.603031250389715459e-02 1.425956966746924903e-01 3.394181266258299717e-02 -5.066127985445705029e-02 -3.787573032933205103e-02 -2.716259942904780331e-02 -5.317146043177369691e-02 -3.147994751525629714e-02 1.146566860945037606e-03 -4.644402812474424103e-02
4.823685921591636117e-02 -6.058718477800748708e-02 -2.253053234690744616e-02 -1.605190620305835258e-02 -6.122456375096089684e-03 1.453864432879647950e-01 -9.938250070941992420e-02 1.088683688851808246e-02 7.411968962435676322e-02 -2.874955184658571986e-02
1.214432079974280855e-02 -1.601044375213728395e-03 -1.009624130948842506e-02 -6.106603731025219903e-03 2.627714740349494302e-02 -2.554940739121572615e-02 2.262033038069390101e-02 5.786675543157176159e-04 3.113503608935564576e-02 -2.360930159329368075e-02
-6.795413212004877343e-03 -2.553736471215301614e-03 3.439116236275325394e-02 2.559233658729966054e-02 5.903600005108353144e-03 1.035865840723658622e-02 -6.033430446872555669e-02 3.816262659923019829e-03 -1.578819689107884700e-02 1.051059591689734903e-02
1.078210224525769090e-02 1.348496089643011209e-01 -1.880244439770940856e-02 1.790605915995611627e-02 -7.980332597559373908e-02 -1.391679807759800026e-02 3.148263285580186772e-03 -8.578695877391663560e-02 6.189028224626857977e-02 2.695731741393204983e-02
6.278460588077885984e-02 1.286208587091274870e-02 -5.035143719465741408e-02 -4.206209358434331858e-02 2.785463522316392569e-03 -2.353537326159278742e-02 8.122678179302482426e-02 -9.406926134254299868e-03 4.967792623934633861e-02 6.200906798315163060e-02
-1.715919055747228833e-02 2.436064487015886931e-02 -2.955393305505335522e-02 -7.519423153303585877e-03 7.647566061992200348e-02 2.995041666562272067e-02 2.906605732314746296e-02 -1.682880975582781713e-02 -2.308794763263457075e-02 -1.962139975630176197e-02
-1.416871626692816450e-03 -2.331394406240333561e-02 -3.564103715680761071e-03 -6.671961945422316687e-02 -4.878370522712204699e-02 3.673596311417023919e-02 1.668892386508534498e-01 -2.106450644179299128e-02 -7.346055772115157173e-04 3.368732003014226605e-03
1.631257857984153015e-01 -1.015306746570176014e-03 -4.326523256512816024e-02 -2.196475676234053379e-03 -2.009081769290550767e-02 -9.600323301058583461e-03 -4.134741511688667936e-02 -6.133257021549842238e-03 -2.581419448460638838e-02 -3.453376458445613778e-02
-3.920499127397393535e-02 -8.946703232945748055e-03 -1.597821455772906879e-02 -2.608121657285237052e-02 -2.221636281404988644e-02 1.090591489171143479e-02 2.087938975790853968e-01 3.662572469773091961e-04 -3.685075462513875966e-02 -3.334901610332949295e-02
6.832246298702265852e-02 -2.090340408738366497e-03 1.179297151339992085e-02 -2.450735900099406880e-02 1.551985973157594956e-02 3.035854254835361823e-02 -4.991497924138911350e-03 9.895148862752233682e-03 -1.038016469946697051e-01 -6.551016180774479371e-03
-3.262219448897676205e-02 -7.986607397560543248e-03 5.093837001383031554e-02 3.339504784648862634e-02 -3.988412932844923736e-02 -7.221269401325823567e-02 -1.004190914298878912e-01 1.830137302339379102e-01 -3.431497629541813144e-02 -5.549954147088485140e-02
3.184360216260310322e-02 2.561681275308122768e-04 3.289301838271541101e-02 7.560727345606877911e-03 -6.361505340776306850e-04 7.266426969974439185e-04 1.444984815987522195e-02 -6.919911309725156924e-03 4.466537003849475190e-02 2.067808081491440478e-02
-5.064129731215442042e-04 -7.059156534399084471e-03 3.472483934690508318e-04 7.248865570627568977e-02 -2.955122045554404650e-02 3.088125348974861059e-02 -4.069525531276154198e-03 1.389321620195251572e-01 -2.849025694382420482e-02 -1.909835635652257779e-01
-1.472535320647663099e-02 2.955892488548575296e-04 2.345786561087794680e-02 9.202220960174881115e-02 -9.320951836071672547e-02 -2.899716581433362320e-02 -1.989688417195540834e-02 1.033227148191864873e-03 1.082809740295419786e-02 2.006362914813379292e-02
-3.032814930786227169e-03 -1.443209647311597104e-03 -6.256480393345277384e-04 -1.952533547918717735e-02 -6.126960808581277326e-03 -1.391768156076260464e-03 7.034153602231477814e-03 -1.449890572946868454e-02 7.136261788469563938e-02 1.053245305808110654e-02
-2.243883389332244904e-02 -3.105558008691992021e-03 1.036223216054621248e-02 7.930546487953876733e-02 3.920080476510439879e-03 4.437392026319679147e-03 -2.393805395372013492e-02 -1.397301168330033518e-02 -6.124472635191766795e-02 4.035287169600070695e-02
5.494250105027744663e-02 -3.023323777774716489e-02 -1.738229910602324957e-02 -1.820721624968998573e-02 1.053089538590894492e-01 5.116139929564516436e-02 4.627219950967913220e-02 -2.747763293634883364e-02 -5.236462261626115972e-02 -5.003279726489031493e-02
2.277615238858971426e-03 -1.769132382665300571e-03 -3.875112691195364834e-02 -3.669888595254559849e-02 -2.993599241224650584e-02 -4.755765258272966201e-02 -6.139454097326350022e-03 1.961986774330150285e-01 -7.738481549012838842e-03 -9.684072137002354072e-03
-9.357448763192636673e-03 -9.619519131199440187e-02 1.211991463650917422e-02 8.611233274221677739e-03 -6.459251362313947996e-03 -1.022953539848057286e-02 2.027960146028102636e-02 1.168748095207689484e-02 -1.249229182135830341e-02 2.061398846016559427e-01
-1.092227313443449449e-03 -2.902492121558745974e-02 -5.251322301618498167e-02 -1.096378507352149074e-03 1.125931127604637774e-02 8.884305234821598257e-03 -1.511298248746863193e-02 5.907281870946996111e-02 9.561218888685370232e-02 -2.946339631079105889e-02
-4.593908146229460504e-02 -3.258214770844202607e-02 -4.327911285109258682e-02 1.683289987544308187e-03 -2.643975465645189565e-02 -2.061557298713702358e-02 2.239309380588387910e-01 1.622611805780175762e-02 -7.782815484369496120e-03 -4.150363803939408763e-03
-1.860619636301973079e-02 -2.273756676209984923e-02 2.231783478697956305e-02 4.556081740831476046e-02 -2.966051346759696408e-02 -6.429323656635298201e-02 2.487518947542378261e-02 1.727935571347861054e-03 4.628220333146183113e-02 1.695184180177114128e-02
-1.991961218143328133e-02 2.039839579575811537e-02 -2.294582634360760320e-02 7.675951825381987018e-03 -1.931387770397311604e-02 -3.236797095009275038e-02 -2.513644177480467076e-02 2.579654294091905317e-02 -2.717837574609997114e-02 1.232703503592873784e-01
-5.653144847889390173e-02 3.979561114146825535e-02 2.416615853529575572e-02 -7.357776485657516186e-02 2.845691068392132081e-02 -1.169494097600417941e-02 -4.039574415147884762e-02 5.295097130322824752e-02 -8.168904384673832987e-04 3.479073032927348930e-02
9.094140547554183107e-03 -5.012974380267340088e-03 2.578171574710017358e-02 1.431041074549632176e-02 2.475620826413042763e-02 -7.270508418927598519e-03 1.750587286807263549e-03 -7.546987183918956246e-03 -2.602068742045200809e-03 -1.518182655824270189e-03
1.749062710209599693e-03 -5.830623326114622862e-02 -2.804508731843924699e-02 5.810650500005822700e-02 -5.691364921038696151e-02 -6.356562554903878726e-02 -1.725872251970542995e-03 -3.595601612279357429e-02 -7.468488490003555302e-02 2.394058540158989501e-01
-3.883892940408284478e-02 1.316159356054400799e-02 1.089446073235918883e-02 4.239581569889592366e-02 1.972815783367025746e-02 4.502420067397569503e-02 -1.379114340421934252e-02 9.074087307736708463e-02 -4.245449323211097220e-02 -4.614204827715356200e-02
2.806373867024850380e-02 7.061291479089596042e-03 -2.079060481372397781e-02 1.938122161492556589e-02 -3.826546223763624931e-03 5.155179543335482693e-03 3.543025556685763106e-02 2.040173156491177815e-03 -3.101178635426024219e-02 -4.871912309839829952e-03
2.219574098084874190e-03 -3.703889460784863964e-03 6.199218490510475382e-03 7.495753565219684389e-03 -2.839061246612628944e-02 5.872418155897655284e-02 -2.696098371433965774e-02 2.481419896111152629e-02 -3.276994342250041936e-02 3.575226020510650221e-02
1.019469425899795917e-02 -2.925104941053674468e-02 9.741859155779476753e-02 3.311175667033028607e-03 -9.051355226344764623e-03 -9.063992361334803627e-02 -7.000295109096842106e-02 -8.657355158884087742e-02 3.104825063367990315e-02 -4.037989577717646800e-02
-1.967189079807863880e-02 8.477177665920414750e-04 6.067841774038904706e-02 5.258648364350898725e-03 -2.986507738297284123e-02 2.767634576777081371e-02 -1.475355298098771171e-03 6.514636195643062899e-02 -1.379426056961019671e-02 -7.935220602027773240e-02
-1.262504244074243165e-02 7.387011750604025734e-03 -3.310241556226514031e-02 6.362790163834851354e-02 -2.111496155725491129e-03 -2.861494700568953733e-02 1.480017450258407606e-02 4.884324541277107988e-03 5.197527846294802689e-02 -2.591933023925031918e-03
1.874267004203796633e-02 1.924115787771439991e-03 -1.932782591526210555e-02 5.293256964280099869e-02 -2.399338158727846657e-02 2.102445744823049079e-02 -7.537646373157965742e-03 2.821560229861920163e-02 -2.870351713302570981e-02 -1.172166011650357942e-02
-6.074271655814909117e-04 -3.651051345160454681e-02 -4.017505029499270422e-03 -8.310674101126281493e-03 2.692274098075775335e-01 -7.931052754552121373e-03 -6.062851845402272843e-02 -2.085139172354768394e-02 2.261624454666441922e-02 -1.563271084819834733e-01
-2.854298870808094982e-02 3.602444134942195224e-03 -3.309482923491767481e-02 -2.962334606023653977e-02 -1.360658410652118913e-02 -1.302802049397613383e-02 -5.187311508172660207e-03 4.484465666562118674e-02 1.562296470954773267e-02 7.801106174001352922e-02
-7.830733628650377726e-03 -5.918134742666611610e-03 -2.283114567473610440e-02 -2.655107896100412489e-03 5.621677153438453187e-03 -5.484658660983688684e-03 -6.133628131187325236e-03 -1.502225852277773444e-02 1.312919858675859197e-01 -6.692801828550586085e-02
-7.093819034311325822e-02 1.041477364153178299e-02 -1.439176105773420228e-02 1.476738008082978566e-02 -4.683084977977794439e-02 7.329156779196747962e-02 -1.728722303170399446e-02 8.843456478848586710e-02 -5.484093160333781969e-02 3.697563803486919598e-02
1.769803920408647866e-03 2.299511451567323173e-01 -8.835022811083875771e-02 -3.969035224745399298e-02 -2.267967054803954417e-03 -2.300274990437174705e-02 1.715528866682759085e-02 -2.566179453340683425e-02 -2.954080000465921993e-02 1.418090264337548700e-02
-2.959883463436353487e-02 -2.317635531336590879e-02 2.567636921343384449e-02 4.165991218261307083e-02 -1.371835251618447500e-03 4.390944121559760271e-02 -3.175228939233037950e-02 9.556406934627965227e-03 9.518593982008580895e-03 -9.450320679144696978e-03
4.241876280321304690e-03 -1.525786041072955609e-02 2.132491753941276671e-02 7.246263276736204448e-03 7.114802807927396444e-02 6.027494137992663731e-03 -3.323996241928912215e-02 2.717252257880392249e-02 -5.725023460651543043e-03 -7.864429716867285536e-02
-1.925669725442129190e-03 2.833916648274483613e-02 2.940097278592468388e-02 -4.630286429772404594e-02 5.434831017503387839e-03 -1.267424608315979688e-02 -1.711400312380563504e-02 2.821040078633857764e-02 7.584036860418812143e-02 -4.255615505174500934e-02
-7.351594607122635726e-04 -1.006346045109240799e-02 2.334512219753416377e-03 -1.039121871643196131e-02 1.077692795284729277e-02 1.036586360447743459e-02 -2.140059706619316156e-03 4.560578133486686142e-03 -1.312930361253266016e-02 4.260097445994973780e-02
-3.266424218597863832e-02 -1.202556863590737140e-03 2.575976343101828436e-01 -2.297002302937494952e-02 -1.621693188490198716e-04 -1.284067244518982340e-02 -3.292867627948611875e-02 5.316693326852174769e-05 -7.969668330649343213e-02 -3.456109224385737339e-02
-1.040504231993425246e-02 6.341989575888164199e-02 1.239267204228544639e-02 -6.021046522745646806e-02 -8.271424760484801311e-03 -2.855760818886457931e-03 3.574914325413636792e-03 -5.672791328638991659e-02 3.599930909768728204e-02 4.277378157158317346e-02
-3.767409172725435726e-03 -4.334033408769965949e-03 -2.129803616026827370e-02 5.275382350029333284e-02 -2.291347509313401351e-02 -2.130774102053066554e-02 3.501819336457204918e-02 -2.877167831231195599e-02 2.910435822081755899e-02 1.464420931603415375e-02
-3.586396414704376683e-03 -9.785431641491879398e-03 3.272818376804945573e-03 -2.276284695903103145e-02 6.278852321366733269e-02 3.259912722572530508e-02 2.716959564635054725e-02 -1.386713263465606111e-02 -5.046576227854525365e-02 8.479163317675821043e-03
1.234117129801817064e-02 1.998245986409369823e-04 -1.083359289302205774e-03 -2.854943483181641636e-02 -3.849919826098625181e-02 -1.050786268028862554e-02 -4.012038750674613505e-03 -3.746516109012372475e-02 1.676099023282245221e-02 7.971216333836374235e-02
1.124239121857769676e-02 2.640773567780755476e-03 -1.301320212105593760e-02 1.858877938323670875e-01 -6.247400004085038039e-03 -8.663601435195826539e-02 2.920444041805567593e-03 1.944160152413863547e-03 -1.878296655472974294e-02 -3.861053569830064092e-02
3.862190729301388098e-03 -1.123576836209324789e-02 -5.183275725902402632e-03 1.630768890891241829e-01 -2.078312739153936103e-03 -4.642488419449279646e-02 -3.837770715922938559e-04 7.076879399831986425e-03 -7.148663257912064861e-02 -6.114871155002579023e-02
-2.263864570985189145e-02 -2.135286161561742412e-03 -5.691509127801946087e-03 6.599545683632590531e-02 -4.676821727241342944e-03 -2.226505615008337810e-03 3.179452218879686223e-03 -2.088988167732849094e-02 3.796793433354243158e-02 -8.409999722113030429e-03
-6.440940666697702287e-03 -1.116708084866730594e-02 2.961836440214200145e-02 -6.178517391519875238e-03 8.055319542504198183e-02 3.939771335784125056e-02 -2.633847435095347522e-02 -3.682904801696746527e-02 -7.457763331036919296e-02 3.210501566217840302e-02
-4.356991495646014845e-02 1.086639178797328131e-01 -1.056467942667951437e-01 3.581449881740903819e-03 4.561673711536921166e-02 -2.581363396200873905e-02 -4.796946975724437900e-02 -5.405290485121644339e-03 -4.041475905179309908e-02 4.232664656857057506e-02
-4.865268070623832153e-03 -3.650871816217877552e-03 -2.091890982181214293e-03 3.602174012392882381e-03 2.936417568904188882e-02 5.655001380761091705e-03 1.033603706929519823e-03 1.503882479394356639e-02 5.854710016249049798e-02 -7.691615009255201030e-02
8.314428178949060874e-03 3.219786615671797747e-02 -1.387970990595682741e-02 4.573541858814873795e-02 1.108205116552616054e-01 -8.263276998297931775e-02 4.378384133827383645e-02 7.681340711450278247e-02 -9.614806913556914192e-02 -6.873567982866327086e-02
1.616317771110747925e-01 1.837682468759007943e-03 -3.506434739031160513e-02 -4.072851887340424824e-03 -2.058488009451451758e-02 4.458052612023588601e-03 -4.336608058522149756e-02 3.384251186361638807e-03 1.346236374564207736e-02 -3.749649741215724946e-02
-5.129731010770701566e-02 8.880411122534447033e-02 -1.617183910726920429e-02 6.339355425959954105e-02 -6.950652333067729172e-02 -6.536280722299710189e-02 1.126430752457516088e-01 -8.471098402711868536e-02 -4.409375873118866196e-02 6.157869497843330986e-02
1.775188307366262460e-03 -6.224539499564539329e-03 -2.458841715815132667e-02 1.233913889405875361e-02 1.083680426607582219e-03 3.526004812124093352e-04 2.152493567655671888e-02 7.407434803277987596e-03 6.292585169869526276e-03 1.150764785922813935e-02
6.571226286341229697e-03 -7.581414715322029770e-03 1.742282018696423088e-02 2.613995844216457191e-03 7.786016519002771086e-02 -2.320451152361210564e-02 6.976970288498376971e-03 7.930924070462938222e-03 2.343220993390392540e-03 -8.204016802204336378e-02
-8.515081918187316842e-03 -9.744139265352688359e-03 -1.603775041504865162e-02 -1.020053620586395225e-02 -5.830993769128727661e-02 -2.885814406960320044e-02 1.908882539369477287e-04 -5.951574729392754802e-03 1.016894465889788546e-01 6.708053541194912428e-02
1.838230992687009749e-02 -1.222925530740114237e-02 9.762865195606328789e-03 -3.481812812611479596e-02 1.642791524949235513e-02 2.957477029757328568e-02 -9.494828374055358164e-03 -1.775594403149388309e-02 1.698046714808077243e-02 2.700377075027075163e-02
2.264283382970536107e-02 1.461817673524139043e-02 1.273361068749592206e-01 -6.780743202150424538e-03 -3.964264691136788060e-02 -2.482490103901847239e-02 3.964419438113701843e-02 -6.334143071234847600e-02 -3.010103785711409560e-02 -4.725709519736049496e-02
-9.329698663224479660e-03 -1.417387763620725320e-02 -1.787773882394342803e-02 3.620120345994830985e-02 5.741115938490206488e-02 -2.883821542819753510e-03 -1.887983464033212572e-02 -4.156092412543515094e-03 2.017615968910602131e-02 -1.939898679482358196e-02
-1.902869159428880429e-03 -2.867815263776919699e-02 -3.367194512791784472e-02 1.176435093884963846e-02 -4.418560236896555693e-02 -4.802390505755978894e-02 4.053760675100546995e-02 3.826932079901571027e-02 8.180292510139405837e-02 2.679350894098588010e-02
1.258706136929779729e-02 1.232724177008800298e-02 -3.051306400937979849e-02 -5.522547245245024161e-02 -1.399002068235395517e-03 9.881035981454533434e-02 -1.766683840455504986e-02 -4.485077147532404163e-02 8.251784589555041793e-03 8.433225194802071098e-03
1.490611141473277730e-02 -6.549443428038624615e-02 2.041900392520887633e-02 -2.750236707156389956e-03 -3.188935932309155171e-03 6.511481467361279751e-02 -5.777627116239510835e-02 -2.456974963799099521e-02 -6.252174374367362730e-02 8.405468128389129157e-02
-2.634364294053558129e-03 -5.009738977707449414e-02 1.616218940313206981e-02 5.935305722028508951e-02 -4.399382523636906350e-02 6.874190688162131087e-03 -2.936151363785915666e-02 -5.111952703905076056e-02 8.856803883273833833e-02 6.244003152799737846e-03
-5.996479094872149938e-03 -3.806002089799226384e-03 1.490067395736874648e-02 6.223020684384649587e-02 -4.437925529214962334e-02 -6.036858366303434614e-03 -4.598145009033268588e-03 2.555587708140886205e-01 -1.115297690005240348e-03 -2.528911033157503208e-01
-9.695708985844318003e-04 -3.591945535765489299e-03 3.848424568298270017e-03 2.158286735875289755e-02 6.532405277493176510e-02 -2.116875783156385582e-02 5.155102872701065875e-03 -1.149515884690395680e-02 -5.907572753147634359e-02 1.902837351352458517e-02
-2.573881035792889571e-02 8.295673575911120812e-03 -3.163524040823925687e-02 6.072858532831767846e-03 -1.043152885940068220e-01 -1.548752222487508479e-03 2.777537229298555552e-02 3.132799150726151699e-02 5.993248304910821916e-02 3.335056989613292833e-02
6.859482453935077106e-03 1.752681307335823748e-03 -7.180437793313441952e-02 3.820556152076636652e-02 -1.539122757190478780e-02 -8.390339159546678083e-03 2.350222890867326424e-03 9.375272377637064664e-04 7.089036932698879190e-02 -1.281210013079854895e-02
4.721200326988021778e-03 8.538558580052726943e-02 1.699091343825889083e-02 1.100746229060065896e-02 -6.100277106657816389e-02 -2.224952050860214137e-02 1.392483562829664387e-02 -5.533847687576608915e-02 9.781674153008002026e-02 4.805746517045104277e-03
-9.165569020578686254e-04 -9.473090849467962968e-03 1.508321561195433147e-01 2.725593778691300789e-03 1.631677436148487115e-03 -8.560818671570427293e-03 -1.196825917935049471e-02 -8.933128342715031950e-03 -3.867221737440281609e-02 -4.649816352508840886e-03
3.665939372375924803e-03 1.282309471873412376e-01 -9.214541495034424268e-02 -7.618441274105774985e-02 1.675848548480719444e-02 1.080066263239567032e-01 -4.985446912544476417e-02 1.286135826582433979e-02 4.832137923018100384e-02 -4.638335731875539020e-02
-1.113423637276083657e-02 1.667826979520661834e-02 -8.803565139023767500e-03 -1.267171756084490598e-02 -2.717565392752288502e-03 -4.270009362602936870e-02 1.790312305162075901e-01 6.982900911318838319e-03 -9.949386126127864050e-02 1.070093471838863162e-03
1.275313874688879627e-02 9.195797407480048313e-03 -8.534888880429072899e-02 6.215072525473514832e-03 -6.015526492124645928e-03 1.165760398821642785e-02 -8.932926176464036847e-03 1.691693173356627056e-01 -9.430310567141598349e-03 -9.566351143193396744e-02
1.790056941033550328e-02 -9.053266681615725064e-02 -3.131274766492576217e-02 6.769137079877556029e-02 1.971905244861350132e-02 8.533683339733365292e-02 -4.425443064588906877e-02 8.761829972242757281e-03 5.314188289298039242e-02 -8.958223735157958348e-03
1.542086839618063768e-02 1.969987639508339813e-02 -5.297225644556537855e-02 -9.379005333893063526e-03 -1.423819567270533278e-03 -4.884379719235632661e-02 1.559852750332033633e-01 6.142659411833252363e-03 -5.685686987089375727e-02 -5.262269946230239970e-03
-2.077922494459098768e-02 -4.252562829739186395e-02 1.087083184971249644e-01 -2.195385034629985838e-04 -3.948516981015720052e-03 -1.363655058189916155e-02 -1.081354765536684560e-02 1.396387459124566813e-02 -4.573109029480999788e-02 3.766170549785239491e-02
8.268364503556479769e-03 -3.299765385232197173e-02 -2.328319511774317591e-02 1.254453779411024150e-01 9.785384417592577974e-03 1.007939597648917079e-01 -5.094089628663857339e-02 -2.909516767027696751e-02 -4.998434598882962182e-02 -1.646533426910066003e-02
8.578819233328148497e-02 -3.029848081064804091e-03 -1.385074812563508347e-02 -2.563357262773388167e-03 -1.651278919460313563e-02 -1.900605158315621726e-02 -4.322409821447679122e-03 1.853907012651781440e-03 -1.626161954010432037e-02 9.595182260238166796e-03
1.036952663712711886e-02 9.259263735354969515e-05 8.006487695286841622e-03 2.963868032753856976e-02 -1.111459309237294683e-02 -2.308571822976639154e-02 1.436001278340881711e-02 -1.196061649199797218e-03 -2.477413095457903225e-03 1.206280826599209766e-02
1.296257820248288180e-02 2.481977707881893175e-02 1.137210034894618471e-01 -3.083788732088573251e-02 -2.241278161694847809e-02 -2.169110718513792349e-02 3.962280577046916469e-02 -7.664980831072481723e-03 -1.283488441265217550e-01 3.482362544021844891e-02
7.871780080762530224e-04 -1.842727779628998246e-03 3.063307856194955395e-02 -6.130791422500209316e-03 6.485321117136910729e-02 4.921748315675501459e-03 3.427745280331934586e-04 1.834089537439197518e-02 3.141042885209593266e-02 -1.164082506773172765e-01
-1.634932834857133130e-02 -3.648538133627652561e-03 -1.015132593370083117e-02 6.818665072056529809e-03 5.511934511305654344e-02 -3.833393283024039144e-02 -6.760351558743152821e-03 1.063440750999398998e-02 -1.997686654461472422e-02 9.265788256508986076e-02
-1.534810878084130054e-02 4.869062233168182201e-03 4.039489799988164528e-03 1.586992128535291702e-02 6.896158227470952987e-03 -1.027017760993619716e-02 -1.192771003295441633e-02 -1.803366537124068136e-03 6.969930022296406957e-02 -1.036368170427341001e-02
7.197389976735651951e-02 -1.622557090773113801e-03 -3.158971768945242897e-02 3.104467545206020251e-02 -1.491125821345080753e-02 2.028329176767424552e-02 1.354305158414270162e-02 -2.761982113781605991e-02 -4.377481924691520310e-02 -1.360860792009056623e-02
4.003935131854554491e-02 2.006462500597108994e-03 9.283062422389517371e-03 1.601933781685405470e-03 2.882629432809775917e-04 -9.384572253853725246e-03 7.964332859175726406e-03 7.562244805187644074e-03 -2.275672534845379555e-02 -6.128996891385157797e-03
2.899396129843800907e-03 -1.438446159579327092e-03 -6.304915184705728488e-03 -2.394060930786768432e-02 -3.889171078106081359e-03 -2.619866853719995947e-02 6.041604178089732963e-03 6.112874523676851794e-03 -1.052286744606469454e-01 1.498289980121233211e-01
6.355019744907656337e-03 1.521725788539495449e-03 1.664740491905748743e-02 -1.963541856356050552e-02 -7.287850575157678659e-03 9.762344531865195171e-03 1.043859366788773939e-02 4.441607734032654298e-03 4.990429275274106680e-02 7.792788203230549288e-04
7.139437622602955516e-03 -4.102071730770133311e-03 -3.396878927871199022e-02 -8.013428719540770240e-02 -6.472577780600698161e-02 3.060918404593766188e-03 6.753560075281671987e-03 2.605142252036267703e-01 -2.669406025671193505e-02 -4.710059210449343142e-02
3.930281133869424626e-02 4.115630056244128608e-03 -2.161678803463893891e-02 4.288865998619764697e-02 -1.025388915657447992e-03 -4.136954601265498827e-02 1.110040237117307718e-02 1.243855332156851810e-02 -1.557962411279762913e-02 1.294809055229594053e-02
2.671705065543635710e-02 8.974681159180146472e-03 1.107965916179350779e-01 -5.044055889193423126e-02 -5.645147897804738855e-04 -2.305086436804608136e-03 -1.724952502236627716e-02 -1.336080323160882509e-02 -6.357993081349816444e-02 -3.370799863311812940e-03
-3.784179569358783139e-03 -2.857300997847307070e-03 1.274045530575741887e-02 -3.594237921615536790e-02 3.694639536672564284e-02 7.545399145223063118e-03 1.331683857903826710e-03 2.146050260297810083e-02 1.148963987314721713e-02 -1.948641646838647490e-02
1.468579358273063018e-02 -3.795179631692468386e-04 1.603375491768142119e-02 -1.663441408889516568e-02 -4.832892889445492175e-03 1.572109057130820567e-02 -3.089122117795538541e-04 3.571451649432252993e-03 -8.431048229376450487e-02 6.721661811891170568e-02
2.906143242673868768e-02 3.637360776215362718e-02 -9.660989916700871497e-03 -1.582512409872089201e-02 1.544182479503976579e-01 -3.104717936681792440e-02 2.047806212862354064e-02 -5.843666080690344128e-02 6.626214585339511298e-03 -7.413036818293741725e-02
9.586619103412108434e-02 -1.178578847456755903e-02 -4.499810457955854409e-02 -7.198082948659900726e-02 -1.437990003764361840e-02 -5.242803136059182717e-02 3.928327372991811603e-03 -2.692002317405859518e-02 -5.033172412780031330e-03 -5.591649559252830429e-03
9.918000193780331791e-03 1.258234284734172370e-01 8.021292241204872053e-02 -7.713057313020589556e-02 3.404527159927588087e-02 -6.603284100350690494e-03 7.343693877626259088e-03 -7.937805237675439607e-02 2.167610013853194656e-02 5.344902799630355320e-03
6.420165057732179527e-03 3.417996669053211672e-04 -2.251874580527918682e-02 -9.990033146103084738e-02 -5.545497165496801953e-03 4.429254866101029614e-02 1.925604552579478906e-02 1.462413685420833193e-02 4.359570124685571008e-02 1.752617448082745624e-02
1.145798483435846518e-02 -5.832046365904211896e-03 -3.509474794987659310e-03 -2.458248014621108868e-02 1.936949267485511481e-02 3.043033524676137065e-04 -3.619786738643449714e-02 1.011187354580750375e-02 7.772694897215197407e-02 2.664469739342688673e-03
1.347869659646956132e-02 1.794450659222128486e-01 -3.399944352341022907e-02 3.168473705618641417e-02 -1.134708426617633478e-02 -3.805340736165590231e-03 -4.948663344925784136e-02 -7.784265060149906171e-03 -9.121516730367348891e-02 -1.357559868533141784e-02
5.833387737988295248e-03 -5.595552251135278536e-03 1.230255954903026333e-02 -1.751569821727680040e-02 8.905398003132070084e-02 1.242704021575273196e-02 -1.282875437066332593e-02 -2.188046425609720472e-02 -1.932698045706052279e-03 -1.638544900335029905e-02
5.823633314345089823e-03 -1.280920581764666668e-03 4.762687061162445591e-03 3.351056463125649809e-02 -1.392196475649549320e-02 -2.016136769172119359e-04 -1.084517621649096035e-02 -1.357813603159298971e-02 3.542121554486225149e-02 2.242032925692718712e-02
-9.496779692376849111e-04 -3.312123384183352382e-03 -2.966579871757679676e-02 1.578382459051296330e-02 -2.937716634336779917e-02 -8.550764931995670504e-03 1.079457585740051379e-01 -6.881939300625005904e-03 -3.620652693651722764e-02 6.457791694104171977e-04
-3.921556084094783741e-03 5.067859685642231438e-03 7.858948205625538447e-03 -6.821469678570361850e-02 3.830304616262823411e-03 2.798113530592183720e-02 -6.526661585732231388e-03 1.047606321183240652e-02 3.353348994284208184e-02 7.697437497916687597e-03
1.837024676473918844e-02 2.319435068949439807e-03 4.493821165489667036e-02 2.959000452765302505e-02 1.046412663057145684e-02 -4.145177097185075848e-02 1.702795018521060730e-02 -5.592655562795740762e-03 -1.239299570097748548e-01 2.162323762236450370e-02
3.284086147542988107e-03 4.991209261158356149e-03 -3.221820186338265196e-02 6.337423297013897432e-04 4.068690160233414538e-02 -2.286248350874520142e-04 -1.768648953298263687e-02 -7.346946723333395816e-03 1.689871491767909115e-02 -1.789095283280705065e-02
-3.559792236694119677e-02 9.682413334834027649e-03 -1.918230704383198926e-02 -2.131046251975423321e-03 3.548749118251384293e-03 -2.036392179690254753e-02 1.487144236559198029e-01 -9.022319337447013907e-03 -2.410404073122817889e-02 4.256247857896802538e-03
-1.389714758791685267e-02 1.713915594140251637e-03 -2.181906604461827243e-02 8.726380205804144807e-02 -1.981084435791119480e-02 -5.635681749836448512e-02 -1.092389403219316997e-02 2.759546983670669966e-03 5.237167850148501808e-02 4.317141517073542004e-03
-1.305958330645631306e-02 -3.836161728787533618e-03 7.584278560540461990e-03 -1.466478496282973970e-02 1.356907241762543570e-01 -3.053534059505006500e-03 2.523325677246753690e-02 -1.215114235931925163e-02 -7.299386280976320751e-02 -1.259699494047483541e-02
9.342784309339935422e-02 -3.689726570660964433e-02 7.275940376887264638e-02 3.823788129462241114e-02 -9.308520689523770708e-02 2.166181135156406562e-02 -4.151073451476530729e-02 7.360514311889980281e-03 -2.136276885798612732e-02 -6.549277729136841752e-02
1.058093177075760186e-02 3.450405173391503117e-03 2.738407448764614439e-03 -1.447251877748764563e-02 -6.237789346826000739e-03 5.791733624998246510e-02 -9.280240252196031783e-03 -3.938931748955076112e-02 7.475519435844144543e-03 4.524025714015876554e-02
-9.025910356518580813e-02 -1.005581630061602467e-03 -4.368789372397047233e-02 -3.918952992845106675e-02 -3.578663669361597383e-02 -2.850782290081303738e-02 -5.759773501668606112e-03 2.076012012631099080e-01 1.614741321072924590e-02 -2.604132121588974627e-02
1.577365679221730266e-02 5.465274655552492672e-02 -7.176372238108279233e-02 8.993456838591280117e-03 -5.239799633825627245e-03 1.221918992685023242e-01 -4.647827684273635185e-02 -3.612874287448181870e-02 -1.983937620534293941e-02 1.489724722519247639e-02
1.457276267078248116e-02 -5.521239444084575371e-03 -3.895590554657660937e-02 -2.116923080192930143e-02 1.527422412913008280e-02 1.450095704588558708e-02 2.258694712411177946e-02 -2.660255698175623476e-03 -2.125387023624418677e-03 2.388639686915275048e-02
7.755865707383806373e-02 1.775950168555496264e-03 2.421881445945323064e-02 -4.918723656665632826e-02 -9.305385629463758246e-03 9.575444899479612637e-02 -6.357084044019277631e-04 -1.198889385179318159e-02 -5.577677407976345397e-02 -2.352821167377858874e-02
2.162212321270642196e-02 -3.145013517010754323e-02 -6.758447513928800277e-02 -2.202844288925642768e-02 8.539921631882804731e-02 -4.707103271859318372e-02 -1.476893957551403359e-03 1.671143353511429785e-02 -3.795682546387266904e-02 -4.601889392203997731e-02
-4.608925496319601911e-02 -1.679457765732849392e-03 -5.192583700232177718e-02 -1.642094068277245508e-02 -2.897880813355342353e-02 -2.141331762182796181e-02 2.666285239353588521e-01 6.795461438561582919e-03 -4.375748269535942314e-02 -2.331753164070379455e-02
-2.551391589124588077e-02 1.243299518608279586e-01 -6.289577587520925328e-02 -6.544814866463073699e-02 -3.486459512363251911e-02 2.474504974519146916e-02 -5.962912440444985418e-02 3.998085982788580212e-02 -3.910166677323242967e-02 -4.563400109059849268e-03
1.012662991207387807e-02 2.285592849697943088e-02 -6.448887880727382019e-03 -3.779896408924235396e-02 -9.485489025517962469e-02 -3.974785309361170832e-02 -3.536285761393904645e-03 1.021540215010357557e-02 4.471248627819508076e-02 1.466547793383611298e-01
-7.635905427225431370e-03 3.240230319655214276e-04 1.414564888113501026e-03 2.761720144399823496e-02 -1.995269080423243274e-02 1.421156187463495923e-02 -1.567687647655797382e-03 9.353437186176193421e-03 -1.020590446608953504e-02 1.296081079601311102e-02
7.755582241332935854e-03 1.254061064712451261e-02 -3.494898045245230234e-02 1.935237975367248009e-01 5.264157038987858292e-03 9.403244530425113393e-03 -6.150408795786563819e-03 -1.556865569735221833e-03 -1.326456185111655750e-01 -4.178246595834971683e-02
3.599745502412659420e-02 9.152501723079345397e-02 -7.934038599752095411e-02 3.659549189596084801e-02 4.658047421922664744e-02 5.501248885541693695e-02 -1.625208774738584605e-02 -3.996411369451496887e-02 -1.036515808492426277e-01 -9.626786646026331412e-03
7.402222772929204116e-03 5.933861394282066715e-02 1.002250143346306542e-02 -5.283081344357683923e-02 -2.114232880993571762e-02 5.141452925883346903e-02 1.577072009409371742e-02 2.634849313042158473e-03 -5.416386568344365438e-02 8.148507006984054973e-03
9.212460613196886069e-03 3.753095281132486777e-03 -1.059306689277941457e-02 -4.989068679461172370e-03 1.557154181006079399e-02 4.557390450335781912e-02 4.264313809824941959e-02 -5.062714503842808897e-03 -6.750851576419704056e-03 -3.431316486440988411e-02
1.567718962367296159e-03 1.353307922681803825e-02 -3.501329166844079771e-02 -1.682446440677029184e-02 -5.009746250507292678e-03 1.797782615026514465e-03 -1.671289186484817973e-02 1.736880740636441173e-03 1.649594374640822245e-02 3.406407028147387384e-02
2.036096092901594663e-03 -1.093177513724786967e-03 1.421842674416431800e-02 -2.094417833867074849e-02 1.528175522254902885e-01 -8.790066332398932189e-03 -2.724680152588389651e-02 -4.941478537916022679e-02 -2.822483627570027478e-02 6.926563074753152617e-03
-4.959719827737731242e-03 -2.650223935336813372e-03 8.517301949778545433e-02 3.172619694515855376e-02 -3.445484800069786423e-03 1.624269645417552449e-02 -5.297190387299154785e-03 9.423277958966524981e-03 -1.511896803533476497e-01 3.748477034135825475e-02
8.355133414267761419e-03 3.731864994330800307e-04 5.451095011584304595e-02 -3.721862851335779043e-02 1.452576829413082179e-02 1.580195352136502807e-02 2.197939907739935445e-02 5.300992290111001225e-03 -1.129482225266615070e-01 8.024433536106202053e-03
-1.141766492272690836e-01 7.234907375551815831e-03 1.055583525737837335e-02 6.804488228004773598e-02 -6.996698587399276248e-02 3.875760683574229568e-04 1.093690176009616197e-02 2.277859531765772383e-01 8.708971774623625040e-03 -1.597786405542967747e-01
-2.158502115220518533e-03 -6.912531102714745967e-02 2.048165783186824823e-02 -2.646482210758003412e-02 2.824239399767465228e-02 -3.624615784205473257e-02 -6.949608461636497606e-03 1.480100756797974454e-02 9.374595017136258535e-02 -1.344798637043266576e-02
6.552792211681492639e-03 3.642379123101286819e-03 1.369294559075630580e-01 -2.893865322914505878e-02 2.230209742314893939e-02 2.768353123935295926e-03 -5.218612746388229251e-02 -5.267132288605179576e-03 -2.445710496491526262e-02 -2.823283610526911708e-02
-7.466543516152131243e-02 -1.456300592905145248e-02 4.738137700269579727e-02 -3.337798549070446902e-02 1.876763588187329787e-02 6.810763465673545791e-02 3.884185788938623266e-03 9.554270943416886402e-03 -6.778378643615821930e-03 -9.829433554827099462e-03
-1.145382805054763432e-03 7.230518076881862436e-04 8.368819600706709633e-03 3.126376518155753875e-02 -1.204168247272281549e-02 -3.498772588601061634e-02 1.131326368295269662e-02 -1.062095090082129482e-02 6.875947411406568843e-02 1.810631790060991675e-02
-1.068824320499823094e-01 2.782702517350111714e-03 2.040485422437288490e-02 -3.382856501246758740e-02 2.708821647540612942e-02 2.709337015059340090e-02 -7.111098497088207127e-03 1.415359796070576881e-01 -4.167414642435279121e-02 -5.732038350354722034e-02
6.666235827223211674e-02 -4.996453872263056928e-02 -2.513005075116557518e-02 -5.864887906957673425e-02 4.268072503678254498e-02 3.939716340534317462e-02 -4.057764140837519240e-02 2.455853433050462706e-02 -4.164660360044716153e-02 -6.239206376034165530e-02
-5.882289348621392785e-03 -1.520989748409976548e-02 -1.513021190669034885e-02 2.071428833467778632e-02 -6.964337879483004090e-02 -4.014022718025284098e-02 -4.952160557976786892e-03 1.634983052723866861e-02 1.658429812899570033e-02 1.350189021101109443e-01
-1.957421522897817914e-02 1.989440623631139222e-03 -6.666029387014349439e-02 1.116380474399944339e-01 1.871023811724245242e-02 -6.021840306159888939e-02 1.156847162541423590e-03 -1.441587291010425730e-02 -7.354802031434909404e-02 -3.997421458783610715e-02
2.483346029128901430e-04 1.566235964349328019e-02 -2.326842861224164005e-03 -7.894782752817515459e-02 1.627240372194656975e-02 2.966972881888682925e-02 6.019850431009284887e-03 -8.702128481862790935e-03 8.307690666774860538e-03 1.142438293805010489e-02
-2.954038625786404443e-02 1.330453286757444023e-02 1.901293639335582264e-01 -1.180415664815469799e-02 -5.003664572605961980e-02 -4.240956822601378573e-02 -2.046535699946687090e-02 -6.283910329658801142e-02 3.037601498519160864e-02 6.690225420884811543e-03
1.114817700439895472e-03 2.391010939658851087e-01 -4.487048820116917858e-02 4.881271255976323865e-03 -3.794310814392123921e-02 3.644521760309480524e-02 -2.437999203326212186e-02 -6.191673729252536798e-03 -1.054602478036462676e-01 -3.158543960666845840e-02
-2.565379896804674195e-02 -7.201578532952647438e-03 -4.890877503347985759e-03 -2.372686823042044132e-02 1.073236743316822572e-03 -1.717260895233379756e-02 -7.277608358152232344e-03 1.715772926491193895e-01 1.682971323586987533e-02 -6.748380934989316182e-02
7.366469373982454868e-03 -1.121565019291199429e-02 8.617043252798514338e-03 -5.478475635978254446e-03 2.891659366468552622e-02 1.214227159550097974e-03 4.353060577111830115e-02 -6.691194276518326600e-03 -6.385384346143586042e-03 -4.968120246552191338e-03
1.256393180977676688e-02 7.161279552313455437e-05 1.212327197781756967e-02 4.398758755427140663e-04 2.848982409439775043e-02 5.104913781854480276e-02 -1.852158089334610819e-02 -6.860835061888838696e-03 -5.846089771561881893e-02 -3.048749130350617356e-02
1.543376750121754938e-02 3.021757325573288799e-01 -6.711045378929345051e-02 1.292081621289864306e-02 -1.030485297183634207e-02 -5.406306238961332972e-02 -5.986288775648995059e-02 -1.644698567791339980e-02 -1.033589004373415415e-01 -3.384925209504148491e-02
-3.818345064567435498e-03 1.876302771727899471e-02 2.855180288651953252e-02 1.962094249474191036e-03 3.144956972044245930e-02 5.340188955083297051e-02 -4.305352876205227326e-04 2.971555700753586785e-02 -5.950960527611144635e-02 -1.191300421543918936e-01
1.181933557490450794e-02 1.725028768168021878e-02 -3.643560633981133418e-02 1.772050087322331324e-02 -1.588620824728358139e-02 2.488763748330519165e-02 2.417414260492857514e-02 1.259817473774576396e-02 -2.771536023776899338e-02 1.653247365047101625e-02
1.174946957811414186e-02 -3.567987238980531439e-02 1.711658839784792330e-02 1.972406219963018445e-02 9.198790284372841686e-02 -4.900643504744908729e-02 -4.584842311194761016e-02 -3.840860057543354911e-02 6.638593100551273829e-02 -6.738354132825817577e-02
-7.961263731514446607e-02 9.259160558032017083e-03 6.826270231787212595e-02 -8.408602796848252403e-02 -2.516870705688198373e-02 -9.457662286024462461e-02 5.925040850697602807e-02 4.406756081205269758e-05 1.430853381586837947e-01 -2.087944668873178630e-03
-4.087049807184626798e-04 -2.593444543047874768e-03 2.782956742881832757e-02 1.346953886112817710e-02 7.953779457330233810e-03 -2.944444324162950443e-03 1.003970631069261732e-04 -1.407523410410546454e-02 2.275712925626193622e-02 2.572315190293543441e-03
-2.295952274896251658e-02 3.251750909609098517e-01 -6.595927728065063833e-02 2.671640433343548324e-02 -1.444817746535159535e-02 -4.013591922379535631e-02 5.209023286704897795e-03 -1.438092226098673931e-01 -1.290512074276172969e-02 -5.609383893683753119e-02
-1.615245003820559022e-02 -7.707853051914513240e-03 1.000397176693649214e-02 -2.417984396845342457e-02 -1.252775784937555474e-02 1.729243819198619803e-01 1.755265648572255574e-02 -4.675641325205390740e-03 -1.236441428497879053e-01 -4.100273649999180980e-02
6.542479177105283046e-03 5.866241723973850825e-03 2.615524732117816345e-02 -4.600651082040530665e-02 4.977202788352538647e-03 3.965119964130766998e-03 -2.004754020262387339e-03 -7.318838297386532591e-05 2.040900926483685957e-02 7.062191399699655099e-03
6.119748736271174178e-04 -3.950876693368310551e-03 8.986600779717552646e-04 6.923850511685845921e-02 -4.470926304464445150e-04 7.573763273384086919e-03 1.215043734775275892e-02 2.002723227974995829e-02 -8.198745770528118038e-02 3.449306558128003956e-03
-3.708571501550944356e-03 -4.426652608838051867e-02 6.261032100851667004e-02 -5.652219148493399514e-02 5.792278814305132535e-03 2.150318279456621406e-02 -1.587700315874350163e-02 -2.568835135268726297e-02 5.102022815462881750e-02 3.614836931897201511e-02
3.920063728066278813e-02 -4.863676706415170914e-02 1.995717635467748538e-02 -7.914007483952005886e-03 7.131358281405927174e-03 1.986834202547167055e-02 2.886252206596323297e-02 -5.086698478177897192e-02 -4.039851851047930598e-02 1.413820666604732323e-01
1.165617729958024970e-02 -3.126042535687478200e-03 3.631244022986631747e-03 -8.040015096753247090e-03 7.358122825610019513e-03 2.021207322174351298e-02 -1.021969410445234226e-02 1.475696510670321216e-03 5.195704646814962302e-02 1.702715030458723175e-02
-6.137983480173565820e-02 2.388174335446637334e-03 1.559209217239484416e-03 -4.674320739232289829e-02 1.593873994911524858e-02 6.878372883648045666e-02 -2.015605779533042805e-02 -2.937615155450424968e-04 1.419392295040861895e-01 -3.420214610396320881e-02
8.232673269269437724e-03 8.662146001425511527e-03 1.936885227583737962e-02 7.738645037084124125e-04 -2.732701452648292340e-02 -2.864343802376834516e-02 -1.245755641571217112e-02 2.624649319095417790e-03 3.401082703229212426e-03 6.442125705163183336e-02
-1.218728787715110890e-03 1.178585740150379403e-02 1.447817336475134414e-02 -1.248274622575202934e-02 6.788833882259763530e-02 -1.008915417324606975e-02 -1.282264528145205494e-03 1.821294691849701872e-02 6.786218844231194092e-02 -7.410721639671803695e-02
-4.552591003001795616e-02 -2.453381357454399725e-02 -6.016115791217235831e-02 6.259944809075614069e-02 -1.166603575430821826e-02 1.493953261535733469e-02 4.233036649490219683e-02 9.389341488924811061e-03 1.901117272140632336e-02 -1.764454337426335506e-03
6.429238099059408906e-02 7.958609917077789919e-02 6.716841079120491886e-02 -1.130514124969371221e-03 -6.155801749844893450e-02 -4.267501359806078615e-02 9.868698096805006252e-04 -2.582833822034888080e-02 -6.259691583185841846e-02 -7.558155135858402041e-02
3.032853221015780615e-02 9.686053583372685903e-04 -9.684082108295707578e-03 -5.022925541566666124e-02 -2.448450190461314360e-02 1.254073336339280378e-02 -5.793640334003846010e-02 -2.084300821347835478e-04 -1.813402778992688133e-02 1.184776907659182976e-01
-2.245378373599676153e-02 1.077894812714691036e-01 -6.816845179279950456e-03 -1.602433068679988068e-02 -4.823433959607970750e-02 -4.762859039113992443e-02 1.455476650951540753e-02 5.063996001954634667e-03 4.606127828989449446e-02 2.271795423113732049e-03
8.474358768921108620e-02 -1.860615465915838040e-02 -9.726787799234876825e-03 3.950751474021252548e-03 -2.049065047616238297e-02 -1.105576692151735013e-02 -1.696280643288298681e-02 2.687082019829502549e-03 -1.599536195379603135e-02 -2.483040519664346177e-02
3.001110810706187054e-03 -7.381104408166845252e-03 -6.258589614619436414e-02 -7.021396992868141063e-02 -1.632548295384915124e-02 -6.779124386137073792e-03 6.987807711192528873e-03 2.498912373849233592e-01 2.669039993297345204e-02 -9.218175228200278792e-02
-1.742833567818084057e-03 -3.234750863974611684e-03 -2.191640548463793820e-03 -7.818545890290264089e-02 8.909013314739151973e-04 2.614532355119976795e-02 1.740316400418361054e-02 5.370697874531059346e-03 1.445085759278280299e-02 4.439635102798839689e-02
1.409033492686255322e-02 4.411016685739554966e-02 4.250945761453358424e-02 3.057735431217501604e-02 -4.112292649695163671e-02 5.970078925506402956e-02 -1.709562475018624669e-02 7.231991955881532375e-02 -6.785327584785487420e-02 7.687856272409199221e-02
1.232975734447636605e-02 6.886433112087927445e-03 -1.754452343970348480e-02 3.382927453133477425e-02 1.304786086521999774e-02 -1.632194862387081197e-02 1.731150589595000996e-02 6.364824976457344498e-03 -7.110773529930335124e-02 1.747585735514057409e-02
1.080591111295511018e-02 4.891507449128888740e-02 -1.763818989294583389e-02 -8.610214555783479717e-03 -9.466776262174562973e-02 4.794379360315852850e-02 -1.879927275803687514e-02 1.248260619262360066e-01 -1.378891913694977045e-01 -3.691857522703071576e-02
-4.905373112197657613e-03 1.379797980616384850e-03 1.645540419591104767e-02 1.237698098200786662e-02 -2.832398866235706289e-02 1.345448793648366080e-02 -4.486479274747997605e-03 -1.286976762710040356e-02 4.956552191263026170e-04 7.042512213520829567e-02
1.472408223896434602e-02 -4.509888419257476744e-02 1.417700300681370706e-01 1.082211170187217381e-02 -3.212422702248179940e-02 -1.200535100926195843e-02 -8.221753931841985566e-03 -3.075385796263279542e-02 -2.393221060180581936e-03 -6.676103608354237013e-05
-2.324868298735500993e-02 -6.175183969100860211e-03 -5.630683900406820326e-03 3.806819335036430718e-02 -2.376837437479102123e-03 2.257704722488376031e-02 -1.728965741532932643e-02 1.045102355368407107e-02 3.861181421200494956e-02 6.973084144973785634e-03
3.440517917637059796e-03 1.576346021047562301e-03 1.189603252425899295e-02 -4.934667973255548422e-03 -1.946365808910660578e-02 9.586160589461439549e-03 2.505057288109819843e-04 -1.779091225687174033e-03 -3.360286964963033612e-02 7.392656356470152235e-02
6.577999686935910584e-02 1.635627586607058459e-03 1.962127084488785034e-02 2.610910190979420439e-02 4.021270212924777168e-03 1.621981513248103163e-02 -3.613747168539865884e-02 -2.137917257191128753e-02 3.133081623342505017e-03 -1.197712292119284747e-02
-1.931743632702184049e-02 -6.989634876088360489e-03 -2.848971899874842666e-03 -6.674164543810118255e-02 8.354996427860243713e-03 1.451434630822255323e-01 1.721936979851492605e-02 -3.661424409566874701e-04 -5.893999590972821140e-02 -6.031169931762191128e-04
-1.349374805513792706e-02 1.539060321485451015e-02 3.973362913162353273e-03 -1.182668912502022641e-02 -5.952382842466262536e-03 1.182632869065832898e-01 -1.625992263651950334e-02 1.191793118612704747e-02 -5.385451944062923102e-02 -1.220939529207403472e-02
-2.246251598314255235e-02 2.622505475116120033e-02 -7.431090359434978920e-02 2.891217280462787462e-02 -1.170399366115416895e-02 -5.165477591813695188e-03 -9.027275864075846867e-03 5.986500948096323826e-02 -2.888226549520950606e-02 1.041323619801950012e-01
3.759263720146715365e-02 6.636545519051447427e-03 1.469122218248849511e-02 3.065671013194942382e-02 2.005001151803354267e-02 3.485182039290062386e-03 1.267711938222162125e-02 3.750512942856997888e-03 3.270103248511418287e-02 1.166408367425881068e-02
2.606926293585127286e-01 -1.264766841513771710e-03 -1.613377116967047720e-02 -2.149538016388673548e-02 -3.063016234561936890e-02 -2.304669000413768834e-02 -5.181642837863792428e-02 9.406386726210670679e-03 -5.546356060009081240e-02 -4.186861535781290916e-02
-6.473402278011510143e-03 -8.101008830206887432e-03 -9.460115729340266844e-03 7.726056733969876873e-05 -1.563012717669178334e-03 1.433624510825244960e-02 -4.656270654344997137e-03 -8.532548785586643522e-03 6.645481589303955938e-02 -7.285006794935678385e-04
-4.028947941341520962e-03 7.456201749624006940e-03 -2.519825641194415114e-02 -8.386304208629246498e-03 -4.794919883624752170e-04 1.335794041010321745e-02 4.880274403608720647e-03 4.514668625647266960e-03 6.279411682169054598e-02 -1.369307891271561058e-02
-1.192942093716914398e-02 -3.680126068866752288e-03 -1.719023723320604186e-02 -3.078797908288646856e-02 -2.994351244001880463e-02 -1.746827294674225747e-02 4.554179023416601337e-03 -3.659328880719116966e-02 -9.469176051517386433e-04 1.551464005449529060e-01
-6.303171642982285244e-03 1.574179672224474205e-02 1.227913963886893833e-02 1.988130190622778475e-04 9.312982792647506169e-02 -9.024799259132151516e-03 4.333412559941833553e-02 -3.248681838524766774e-02 -4.041803592797444528e-02 -5.015965473544631986e-02
1.267950710872884973e-03 -7.986042312513910724e-02 6.870361623091418915e-03 -6.469680664693827632e-02 7.509226115370708221e-02 -2.650692603680724485e-02 -5.980582833913138108e-02 2.093963082417252611e-02 -7.571559109202631588e-02 -5.144595088235376368e-02
1.315763378676619751e-02 1.906565730648570114e-02 -3.118294086152567993e-02 2.906546288015902924e-02 -4.864389736059875589e-03 2.085947811713884960e-04 7.408138837599732504e-03 -3.500078236315408431e-03 2.645497782831093478e-02 -2.139536842919675941e-03
4.905280910907305891e-03 -1.958412624533939841e-02 -1.930648721891978573e-02 -3.318601566702891748e-02 3.145959332491676808e-02 1.528857911761241986e-02 -6.079214181730981277e-03 1.900545456974798708e-01 1.057918195167375196e-02 -1.505646989859677209e-01
-5.707793153118837989e-03 1.767103585209617647e-02 1.747822030276055885e-02 5.471554276589754573e-02 -1.873573834723471845e-02 -5.820113624744345515e-02 3.002296777472054229e-02 -9.317798536360914763e-02 -2.221158535166176118e-02 4.120792480953788112e-02
2.480949387039866130e-02 -9.131989581124317149e-03 2.376628385583813563e-02 2.473974523695992786e-02 5.333482034386652880e-03 4.581063644364654491e-02 -3.904817112850462318e-02 -2.417961317085028095e-02 -1.294386225218635035e-02 1.578178576116667786e-02
-2.464891455768428163e-02 3.573175029907742911e-02 4.846031387850635933e-03 -1.955694564829787551e-03 -2.191537657353546942e-02 -4.522780309676968646e-02 6.390697741106783625e-02 -9.743283830195546575e-04 1.879556834461283688e-02 -2.300763799113276012e-02
5.737761744205925607e-02 5.956242624793817858e-02 -3.389088625785332144e-03 -2.276102937580310598e-03 -2.585000526748110899e-02 5.576635278404366153e-02 -1.099171511326661188e-01 1.154262932514017043e-03 -1.727174505628422882e-02 2.192802729234298934e-02
-2.167432717818770088e-02 -4.332221612420901133e-03 3.591838535058746416e-03 -2.833933406139596198e-03 1.543577939324594812e-02 -2.312577164285204920e-02 2.393782476056517672e-02 3.776061081099033566e-03 1.779953776659079501e-02 2.053148634297852562e-02
-1.138337997514577218e-02 -5.822502178819593914e-03 -3.289553206365430221e-02 -3.543487404529424567e-02 -1.642523768897981989e-02 -4.677661489367011816e-03 -3.681010602683036908e-03 1.705147066778848683e-02 -4.607866949359533219e-03 9.042564692205530552e-02
-3.714942025899949790e-02 -5.531265943879021436e-03 2.194032458257539342e-01 -4.114696921917446182e-02 -8.196238619130654518e-03 -1.883655924851216842e-02 -1.228311225170599166e-02 -2.770204612255235729e-03 -7.154151566728336742e-02 -1.744267829017465826e-02
-1.705050606661145246e-02 -1.082574384935163121e-02 -2.831086322005893496e-02 9.737982089602066280e-03 2.689214099615822584e-01 -1.882077155178781686e-02 -1.484632262150382097e-02 -3.090954859555662682e-02 -2.900148538386781299e-02 -1.385309940187603173e-01
1.251553252600060354e-02 -1.150308029979865698e-02 -3.997555329776147220e-02 -3.783434274998606628e-02 -8.021276867345453199e-03 -1.367845863493643947e-02 9.381884171862114874e-03 5.606354282102541525e-02 1.479214536627159425e-02 6.438490183982847892e-02
4.660294393707932296e-03 -7.553198427542472462e-03 2.931953727864180723e-02 -1.182789044036064267e-02 8.042963200666147783e-02 -1.148164320486867729e-02 1.257240218422638230e-02 -4.721441750780473040e-02 1.711399156171930155e-02 -1.725229916809071715e-02
-6.230175521345152068e-03 -7.707363508965532975e-03 -1.146809105665406048e-03 -1.908993780147407934e-02 -1.836325578443783954e-02 -1.983495502865759933e-03 -1.322323504012756952e-02 -1.384211349154058045e-02 1.403046840189625388e-01 -5.155460330560706489e-02
-4.128010607349964257e-03 1.801806781559459492e-03 -1.162607728089987136e-02 -1.854227501789057139e-02 1.835850933654760431e-01 -2.069895812617161910e-03 5.180198394576523806e-03 -8.485073833994404013e-03 -5.226796748278315224e-02 -1.135072218669996580e-01
1.740485764152099879e-02 -2.170717559941514122e-02 -5.287563108793468664e-02 -5.276520017460429625e-03 7.856871318748338134e-03 1.590576960712643956e-02 6.328889006078708586e-03 5.470292974766018806e-02 -7.534411706344039394e-02 2.545637958215276470e-02
-4.182286027825002361e-02 6.458382266156049815e-03 1.422484603343607823e-01 -3.462599423349226047e-02 -2.299298049516304912e-02 2.552060461007902084e-02 -3.931916910849905626e-03 3.221841153805350862e-03 4.197685086353496881e-03 -1.490334932669052682e-02
-1.350995909217633274e-02 1.036600687702958143e-02 -1.103189782509988830e-02 3.181096440171424060e-03 9.273160019087388697e-03 1.632840860870105396e-02 1.001843254546298974e-02 -2.161315807476632024e-03 2.772851837463283925e-02 8.272156075331084379e-03
-1.458811752954630898e-02 4.819058337804717554e-03 -9.053545144389910093e-02 -9.915658143966311899e-03 1.842843483435802066e-02 3.734639070709663052e-03 -2.284728054243124074e-03 8.033523431908531909e-02 -5.090491826945967718e-02 5.749871473260990268e-02
-2.872041362522792865e-02 3.114283305000233384e-02 3.885181258308128931e-03 1.034564611142655332e-03 -2.140885490037479355e-02 -6.667109875348495307e-02 8.336154606185279189e-03 -6.808072468649008571e-03 -2.048440154405779465e-02 1.191918066825048556e-01
2.684896407573460902e-02 3.788776749677679086e-03 5.107247654418662144e-03 2.560836645678455942e-03 -3.903081393814423865e-03 -7.343651247327414276e-03 3.505489018498986198e-02 -9.950080692294419743e-03 -2.300471182553680966e-02 -9.161586777315417970e-03
-3.435889575498624060e-02 1.291467598277038775e-01 -1.663163063789939791e-02 1.182328951803980760e-01 -4.140625779177687857e-03 -1.530536313214257466e-04 1.962549639127350587e-02 2.534450034398733412e-02 -6.184708476192761484e-02 -2.651877471427416949e-02
7.146422227682796592e-03 4.878562931275350588e-03 5.397617750622567961e-03 1.170998624817872064e-01 1.382565384529717799e-02 -1.533302468664925373e-02 7.434172817563707014e-03 -2.283064996506476568e-02 -5.008908427793709595e-02 -4.996179085947275583e-02
-1.049495561863292639e-02 -2.830299770799509819e-03 1.066973048201805534e-03 3.368546656002243019e-03 -2.044491411884197599e-03 1.729799714800819409e-03 1.951532704441131735e-02 1.930479978707855607e-02 3.977583349005361230e-02 -5.805740903175611763e-03
-7.567674645680416180e-03 -7.148522595395739474e-04 -7.077333259788170898e-03 -8.170011213334875400e-03 -1.326624701961515509e-02 -3.584593042666272492e-03 -1.359361065992853966e-02 -2.097408380660720217e-02 -2.905717784685002761e-02 9.807278906836404408e-02
-2.755590786507015541e-02 2.496970539634012221e-02 3.586474133364735573e-03 4.003867879972090871e-02 1.050187646559128662e-01 -4.182484227969150009e-02 5.244881072566986296e-02 -2.093921044743518589e-02 -2.548102269927409597e-02 -7.302168546623240275e-02
5.729374465524291610e-03 -8.231947544378975801e-03 1.031014222855838880e-02 -1.221784975178324788e-02 -1.068368996105448360e-01 -4.631608062020338423e-02 -1.652942369185858920e-02 2.326955118353278285e-01 -3.281401366787937458e-03 -4.728128170648952799e-02
-3.220091136222559720e-04 -8.193943750877931637e-04 1.636515156537435289e-02 -9.614496874409649008e-03 4.920491479281477280e-03 3.748117680797018181e-03 2.379630145057939558e-02 1.111556337032514746e-02 4.045065166093525511e-02 -8.873372652225508528e-02
6.426700747111312520e-03 -5.561203170570323297e-04 -2.702732758301642363e-02 9.562751351455893445e-03 -1.128747127207160340e-02 3.183962991830309452e-02 1.875712414726102978e-02 -4.734807555225136106e-04 2.804958673112691384e-02 -1.345413917262635976e-02
-4.179692239306518654e-03 -2.934902700246392964e-04 -7.452619375317756211e-04 -1.699953129733800666e-02 1.480515037309451665e-01 -2.408796266777590150e-02 -2.282230675864501887e-02 3.621049167215407202e-03 -1.982248422670885787e-02 -7.297167515694351347e-02
-1.684744854286131591e-02 3.057299566304163153e-03 6.141395399952790518e-03 -9.063170205545725139e-03 2.729140359132758639e-02 1.278774063218420139e-02 -3.165437224426512208e-02 -3.082625241023592352e-02 7.643551793947402778e-03 7.866560458126128919e-02
-2.115446242929252055e-02 8.281123331406438359e-03 -1.419033842980292788e-02 -1.922930493163640606e-02 5.071697214679088753e-04 1.602878643933408065e-01 -1.668179854675379346e-04 -2.105921725593862606e-02 1.135260155571060983e-02 -2.709539968555637127e-02
8.775714404139500768e-02 -1.638206375716056915e-03 -9.227028065576278748e-03 -3.122145015286415318e-02 -1.237458156458069551e-02 -6.309167897215745132e-04 3.650679269303393204e-02 -1.013635319006406417e-02 -4.652243302135557895e-02 2.165291161043835302e-02
-1.384240611980258433e-02 -1.176310639373452302e-02 -6.030279207717134660e-02 -2.173328658069731412e-02 1.160753162817935585e-01 -3.108780017255027492e-02 5.756873002716766247e-02 6.628005107170541199e-02 -6.349313381277273127e-02 -6.133596312668212341e-02
-1.898908453308380262e-02 3.072277107842624581e-03 4.364527374551075908e-03 2.798974836593626919e-02 -5.224988091647631699e-02 1.561659820605950169e-02 2.082305181029481950e-02 1.701893267841077598e-02 -1.132410224331243352e-02 3.534501917096505297e-02
-1.996621609161291014e-02 5.599753919692760165e-03 -1.491674796652259563e-02 -1.791569468837739612e-02 -3.846307624377419410e-02 9.592340589717902530e-03 -1.318869396141981142e-02 -4.960744496617920836e-03 -3.883887790247311528e-03 1.556244235287000122e-01
1.449737570505892359e-01 -5.160538971256868439e-03 -1.292558361709711390e-02 -2.316936506949988928e-02 -1.016554001624450296e-02 -4.992778969119356829e-04 -6.472719512675675912e-02 1.310962887658915187e-02 1.323637738514006623e-02 1.237590292953279041e-02
-9.206123488628491919e-03 -1.263398522418560099e-02 4.043340755855737677e-03 -1.740970185652203003e-02 -2.419513125483928676e-02 2.721618321892505660e-02 1.097958837433000573e-01 6.906925592113496645e-03 -2.731796485937018973e-02 -2.151603143591875739e-02
-1.637407624452793392e-02 4.679929587370517535e-02 -6.049995988921734458e-02 -3.280039795316436885e-02 -3.522614392491355256e-03 4.762438835462019099e-02 -6.064245357665982994e-03 -1.178247048088058163e-03 8.865954061526537229e-04 4.227699082054867802e-02
1.597464816761825102e-03 7.115680760998640067e-03 2.052578449702072497e-02 -3.145458917288841000e-02 2.992746547108966412e-02 1.217861123523142006e-02 1.396406014693999005e-02 -1.250120000124779404e-02 4.377245838708965914e-02 -8.530959439072316117e-03
2.466082580083328243e-02 2.687073859975274703e-01 -1.163139493363987420e-01 -8.630443719612258813e-02 -1.017751526702713460e-02 -3.400896076224298875e-02 -2.082695010825623763e-02 -5.680266801114144254e-02 2.334206348244658932e-02 -2.538784080711616042e-02
8.981392579416196120e-02 -3.680670168335367642e-02 4.234733583336783985e-02 2.510968477051031197e-02 -6.825494502065712621e-02 -3.819302696194623592e-02 1.004159194338820199e-01 -7.581050163373416473e-02 -3.271987628494048284e-02 -9.044544624081007206e-03
-1.280550851843345085e-02 2.943894959880454919e-03 -2.011514382708892018e-02 -3.009266056326420635e-02 -1.011759995912972845e-02 -1.658084941197934467e-02 -1.455379667279927715e-02 5.631976028917092154e-03 1.209815194519140158e-01 -1.374666008926245415e-02
-7.784798906656181447e-03 6.593078547690711666e-02 2.293994179027634972e-02 2.057380452776119695e-03 -5.251449481971091904e-02 -6.473191607160662386e-02 -8.489459890880782234e-02 2.103143249345445706e-02 7.044670719718676422e-02 -1.354897149504299264e-02
-2.763181703303056388e-03 2.051995927381452534e-01 -7.158720131513508778e-02 -5.144250950894328767e-02 -7.241596974007217212e-03 4.357915474203771919e-04 2.127585550059509639e-02 -1.211585215677277692e-02 -3.662065126769439849e-02 -2.399566230455358121e-02
3.307094167218392611e-02 1.974839998303448002e-02 8.098198520284236035e-02 -1.338366748421916143e-02 -1.459125735066582434e-02 5.570733083721456091e-02 -1.322418676212119316e-02 -5.163690230334356396e-02 -1.855188712538081985e-02 2.878860746976523097e-02
-5.464086486451246588e-02 -1.559597487632539622e-03 -3.675089095114442150e-02 -3.103577774585009399e-02 -4.944940897710069921e-02 2.226469381725260099e-01 8.047353652235250676e-02 4.221950404820234114e-03 -1.070527434192110466e-01 -1.389981551924836418e-02
-1.267646631274714497e-02 9.788773397766485293e-03 3.842821484914170360e-02 -8.872707185582815251e-03 6.835761430648819303e-02 5.942772596487326357e-03 -1.266518378745693472e-02 -4.783924047527367968e-02 -1.420186125154758276e-02 4.499033505678844136e-02
-1.711099087636715806e-03 2.081693615948567930e-02 -4.281053520883401631e-02 5.700320207455653043e-02 -5.158431456472589022e-02 -1.032898520612749935e-02 -4.440253335622583453e-03 5.661294502043366650e-02 5.426637028866655721e-02 -2.464104575050170276e-02
-1.291226587652986695e-02 3.493379209343296793e-02 4.716015204759789470e-02 1.905974429094368927e-02 -5.682169437084704650e-02 -2.404782952135198562e-02 8.435023024701060468e-03 -3.812148437145093660e-02 3.745145711486354279e-02 5.280929618423581967e-02
7.817401306945729114e-03 3.455854151203146749e-03 -1.490807742889005416e-02 5.066439560409394249e-02 5.851815513768292981e-02 7.643425240788893731e-03 -2.523802406185403704e-02 3.316705307716713309e-03 -1.280483673503883882e-02 -5.089238676321516247e-02
7.850155602994408899e-03 -1.702586073463581776e-02 -1.042061140218819397e-02 6.894663428605998790e-02 1.865846993058831865e-02 -7.143463257321705506e-02 3.917736370186821609e-02 -1.557141939868769785e-03 5.750511798671667507e-02 7.348855214069487454e-03
9.100292912683575694e-03 -1.025660088894507927e-03 2.970861964983265158e-02 -5.254161843804991405e-02 1.973382373903889708e-03 5.322981986211131923e-03 4.375326270473405520e-03 -1.716279806397631746e-04 2.727122163056478268e-03 4.138266202515567677e-02
6.789779905600657091e-03 1.913666593070186559e-03 9.258482157749887975e-03 6.769501536276121417e-03 1.018556196365701626e-02 -1.708053116598650181e-02 3.598662159965192869e-02 -1.109193013364465855e-03 1.989453676943220631e-02 8.315135308701626302e-03
-8.187094740671080687e-03 -5.644863988056953059e-03 -1.253025281129858427e-02 -3.119016747888980409e-03 1.230606701117454259e-02 1.142934039603583224e-02 1.609788184859195894e-03 -5.084959237727675226e-03 5.861569015050331621e-02 -5.062401516028792840e-03
-2.620048587036486604e-02 -8.856456298134821048e-03 1.061781979786490249e-01 -1.192808331375718248e-02 1.884311424596776634e-03 -3.116141192595678691e-02 -2.504463981903645373e-03 -3.704262130415538010e-03 2.384900732113647004e-02 -3.003368018106850404e-02
-3.515637215563708479e-02 2.016732141046616040e-03 -3.598959022188978618e-02 4.305775205214463358e-02 2.949414251062413509e-03 2.394651689063145156e-02 -1.122240868808078475e-02 2.168398900425250880e-02 -5.483772468572707150e-03 2.686493536267608312e-02
1.350980255415726583e-01 -7.872706870949933849e-03 -2.676641837392221279e-02 -1.993023941479429503e-02 -3.497189105448347476e-03 -1.289694239797543537e-02 -1.835827428095774747e-02 1.775420889272193853e-02 1.795326847898908286e-03 -3.633060830481583264e-02
1.534754876413635567e-02 -1.495267286689672213e-03 7.115229474260116246e-03 -4.077308359587344944e-02 3.040168413185966988e-03 7.175415886501113061e-03 1.021451396466822176e-02 2.836585712645128647e-03 4.245681797734135454e-02 2.558064853778533460e-02
6.110289355748079604e-02 1.531101788296575054e-02 5.266827322266821876e-02 -2.205170314520133942e-02 -2.277813751957865132e-02 -1.762328779636614887e-03 1.139306473793610941e-02 9.305988806168856778e-03 2.583274511363464689e-04 -1.631028185062694327e-02
-3.309363058337719266e-02 -1.256181620498881863e-04 2.223380443113535509e-03 -5.523217777631023173e-02 -6.824739532817391575e-03 2.128297278949780325e-01 -1.071734976282921400e-02 -1.128452532918563069e-03 -6.996719031632676888e-02 -3.956209904722925857e-02
1.542509596893349398e-02 -3.875796939522567312e-03 -5.527378271401917759e-03 1.208461741285620471e-02 -6.293486196444106687e-03 -2.215582774948956016e-02 8.641911477406912998e-03 -5.486418117369761330e-03 5.961979699946331340e-02 1.292000941140351682e-02
-2.152104916072859406e-02 -5.596628804952530171e-03 1.409498915478434077e-03 -1.344569522658770055e-02 -1.662379768141332773e-02 -1.190753503881455955e-02 3.231626593024434439e-05 -6.432803241117219248e-04 1.108015723093402072e-01 1.143043222252752844e-02
-1.134606034371723852e-02 4.428285344674739825e-03 -2.418704862644149856e-02 -2.047945038270084818e-03 6.216569387762234389e-02 6.176062919882948851e-03 1.110537907373377632e-02 1.478352246787700656e-02 -2.986788451383253461e-03 -6.930746891366333651e-02
-1.347286022076198131e-02 1.927149342201849025e-01 -4.036759930680765968e-02 2.313217980738624044e-02 -7.954016935522806309e-02 -3.192585495766048220e-02 -4.886768864558903996e-02 4.373803541252792304e-02 -1.069883767179610930e-02 1.096548162182951237e-02
-1.165515384229763585e-02 1.721550107356091758e-03 -7.024120455817490540e-03 9.062571023436684359e-02 2.077067548252703455e-02 -4.739124054028627520e-02 5.657403585340237129e-02 2.302039907260736238e-03 -5.683762478643454574e-02 -3.192016692094790109e-03
-3.995261859579118946e-02 -1.182822559480065398e-03 -5.723255737311709092e-03 1.536374981328768492e-02 -2.877525687846861288e-02 -4.702623512842649817e-02 1.755416459433821741e-01 -1.884877997180896964e-02 -3.116487185979518668e-02 8.417002108428765783e-03
-2.271524937401588409e-02 -8.625631498616639220e-03 2.578509186180120705e-01 1.048590665269115690e-03 -3.753658513709919649e-03 3.702192620779456468e-03 -1.425249285322678465e-02 -1.683138074882481114e-02 -1.437910273865800892e-01 -3.664471343762812361e-02
1.862295783241078254e-03 -3.387976112092013631e-03 9.616063932925462574e-04 -3.057291892526071454e-03 -7.303204884255967699e-02 -1.030182346513414636e-02 -1.450505354982560557e-02 -3.767042997072473504e-02 -5.359693547887127429e-02 2.256040915689656312e-01
4.532130413435107863e-02 2.600385872590060474e-02 -7.538749710500851353e-02 3.142568218148887073e-03 -8.308569148362348472e-03 -1.186324935905216579e-02 1.201667163636092883e-02 7.361147707113503691e-02 -9.317397232274515426e-03 -4.091512986236165578e-02
-8.219063184010977005e-03 7.786926756240454377e-03 -1.141292688221893364e-02 3.244121681374286664e-02 2.431036302420753678e-02 -2.456530447755953667e-02 -3.946742612027994736e-03 -1.255608597590410387e-02 1.426409444573132311e-02 2.333971936560750790e-02
4.720432716401308515e-02 -1.052696342286587195e-03 -1.484986185393025876e-02 1.383546611060022802e-02 -8.689673781819935716e-02 1.632337883507690712e-01 -1.955386542046683163e-02 3.924545448450193069e-02 1.013139284870221736e-02 -4.853730498733226095e-02
-4.065918918155878026e-02 1.688053693773663294e-02 -4.625880495999965675e-02 6.581196863668470343e-02 2.862872281717406334e-02 -6.897619408027415473e-03 4.978753713226565653e-02 -6.607529583927745573e-03 -5.050798510413163911e-02 2.875616973316905047e-03
-1.359940111319940248e-01 8.209748142030457926e-03 1.381370372727387316e-02 7.326335715437638785e-02 1.377722369526030409e-02 5.708677678351747886e-02 -2.174455377349310704e-03 -8.983559650984240808e-03 -2.157351525337768486e-02 -8.232654427568571534e-03
-6.952129974556966845e-03 -3.263145954391106357e-04 -6.104901392150195380e-03 -2.040809682578542672e-02 -7.726431938074467681e-03 1.361456415020842383e-03 -6.887169129040885893e-03 1.231875320347592360e-02 8.206830999281670980e-02 -9.478390209499308258e-03
1.500568764659869145e-02 2.094010040603220060e-02 6.774062077328775293e-03 -1.135051728531020175e-02 2.492763223542068113e-02 -4.232113428417613038e-02 -2.810519898074187797e-02 -9.936747055741446122e-02 -2.545042558025526966e-02 1.613536807761539460e-01
-3.551333031966890513e-02 7.452930573376913628e-03 -5.110024342864553926e-02 2.516848335493513528e-02 -5.746755905638823575e-02 -3.132301581149050940e-02 1.519572782841554226e-01 2.973233855991970920e-03 -1.129547232172353581e-02 -1.287302202843090132e-02
-6.864869605095458988e-03 3.731403093705597251e-02 -3.305806034974366481e-02 -1.363155193502342544e-01 6.350248459145287939e-03 1.041225931177608838e-01 -4.264861690883191281e-02 4.177812642645229065e-03 6.694313418029243512e-02 2.985937922970031272e-02
-3.082767729353157876e-03 -2.455064244316605433e-03 5.261153548217436388e-02 -3.328884435847600382e-02 -9.945299547728100181e-03 -1.624654280417212396e-02 1.454884275454936676e-03 1.067577320937357355e-02 2.904577030797822132e-02 -1.002307444231704571e-02
2.797417376197565420e-02 -4.381434146443572569e-03 2.110203578107217037e-02 -5.095872068127538929e-02 4.951968505135306842e-02 -7.796528729573527772e-02 1.050242979788481301e-01 1.832519089405567139e-02 1.070596473945848760e-02 5.178663680417317644e-02
-4.879311480830316643e-04 2.195169667831232334e-04 1.749618290443519589e-02 -6.485905550510905060e-02 -1.074643782372813189e-02 2.264162357071554943e-01 -2.562590071657267973e-02 1.218098397713729929e-03 -9.218043563902289517e-02 -4.163276252628680257e-02
-1.527191000287370266e-02 1.550985519564777870e-03 -4.134565417631803907e-02 -1.066151014974305380e-02 5.746902004336493924e-02 -2.125572304902661330e-02 -9.278894460178817999e-03 3.752062893441230479e-02 -7.109312394635779186e-02 1.135422538273437171e-01
1.029469724259757073e-02 -2.432795691674984398e-03 -3.907548487485176629e-03 -1.849014280946819841e-02 -2.028032207599584497e-02 2.550669854075955124e-03 3.476388152400596877e-03 1.745577794402458291e-02 -2.129518042933403743e-02 5.727000745201205056e-02
-5.565857583871134523e-02 2.413436403058491844e-02 -4.570035697221793564e-02 2.601717707995759854e-01 -3.330529487419177110e-03 -1.053599262697717670e-01 1.942907704311041053e-02 -1.101180301612943863e-02 -5.021548494839336851e-02 -5.370061559882241022e-05
-1.988655474050174052e-02 -9.754922174909410812e-03 -2.507670332223436993e-02 1.687829768697404406e-02 3.475820856994295271e-02 5.655923651805156577e-02 1.855427711416652095e-02 -1.832857618836033001e-02 3.074489017482935800e-03 -4.260535216148380461e-02
-4.981824394360312783e-03 -1.696703749347229376e-03 4.078268057074100478e-02 -3.001012797013000166e-02 9.658998558633466111e-03 -8.241877810091573567e-03 3.812785161809016015e-04 -5.897379358239115792e-03 6.830804559821020139e-02 -4.619026599854208874e-03
-1.713368986010816233e-02 1.254767097724201509e-03 -1.177192609263552625e-02 -3.078010959267523002e-03 2.045721718111192383e-02 1.256381329566828679e-03 -9.851483121065669063e-03 -1.934011303304416715e-02 -2.700785739131279783e-02 7.517408078347694034e-02
-2.023204277235760365e-02 2.592414509914415296e-03 5.915005938953080307e-03 3.116024030802863956e-02 2.180955561499335355e-03 2.366929768747486756e-02 2.980440583796743152e-03 -2.861620082654562931e-03 -8.666579540551704042e-02 4.074780384175386710e-02
-1.877148284517391255e-02 -8.369434926738990050e-04 -6.327997695204987463e-03 -2.956433100124715441e-02 3.554441647908380270e-02 2.717650936664879179e-03 -2.239861638516264797e-02 1.451716069642461707e-02 -7.499525485498234612e-02 1.125237686052697750e-01
7.369596940245317328e-03 -4.696352725583304022e-02 3.291579407663840174e-04 -5.118327696409655236e-02 -2.220838672560099258e-02 7.005764112783385844e-02 -3.920360032359516272e-02 1.960522881407513948e-02 4.402789739716873874e-02 5.748239254929750353e-02
4.393488037917388234e-02 2.840378813746280776e-02 -5.232213500819698354e-02 2.568258384165702721e-02 1.011661841980309069e-02 1.115020399002880080e-01 -2.176041944639725903e-03 -1.855069704174790515e-02 -3.432049204168562129e-02 6.572471009236079218e-04
9.620037821146195864e-03 5.191141247565118910e-02 -1.075506637686713673e-01 -2.281782109212504572e-02 -2.853412680837990809e-02 6.966295084039150765e-02 8.740363798569163178e-03 -8.745778140952277513e-02 3.326239376048586993e-02 -3.614525168348216820e-03
-9.876264045453413652e-04 2.380235340176307338e-03 -2.211102708655456744e-02 4.260266412311420475e-02 -1.676146443033811259e-02 2.011960710810283687e-02 -7.467408156423911182e-03 2.420804918551342985e-02 1.649285967885047097e-02 -5.177029235784833677e-02
3.280016536562979645e-02 -8.767733066474392434e-02 4.919382832466890482e-02 2.332548003034351849e-02 -1.017780934914891628e-03 9.374637166819155265e-02 -4.199973026375944385e-02 -6.195272839980629082e-02 7.983123072622954480e-03 4.597811677241218919e-02
2.897256929963148119e-03 6.731769079983560000e-03 -2.902454498714137146e-02 3.623219007601341003e-03 5.433092229179388444e-02 1.461957319068526474e-02 7.637795682250475907e-03 -1.147539714217785112e-02 1.745940171174799240e-03 -1.341210116091523866e-02
1.955692023800885068e-02 2.681870265057106906e-02 4.990818118904191691e-02 -1.657052733059312041e-02 -4.441221801781176926e-02 5.379931636350364019e-03 -7.167950056376840018e-03 -1.012420918933008840e-01 -3.227267287891982805e-02 -1.321318591439238528e-02
-5.437456013926447035e-03 -2.009073949355381222e-02 -2.901755179900363489e-03 8.220756107859899034e-03 -7.421659445871405490e-03 1.591715375426608070e-01 -1.725245937417676720e-02 4.640470174496588024e-03 -4.497071977731550291e-02 -5.028484113221091956e-02
-7.292216112794704802e-03 5.864485788959104828e-02 2.466147608313585052e-02 4.103759836188364263e-02 -5.209243851244076823e-02 -6.083948167594133843e-02 -7.577117673943696563e-02 6.522498060591296054e-02 -1.831346828147824811e-03 4.350223662469775154e-02
-4.656005998435478604e-02 -9.726805641516945294e-03 -3.817915298825053962e-03 -4.583425346189181487e-02 -4.124106176213319756e-03 2.795821508541954103e-01 -3.659542834092804203e-02 -1.648239268796010404e-02 -1.217448368329489272e-01 1.013139549259770011e-02
1.117747071419742354e-02 -3.029064402142178647e-03 1.246368323990476243e-02 5.019433149022008850e-02 1.456084656464866171e-02 1.043783452230938325e-02 -2.749397311510505537e-03 -2.105606020693202851e-02 -2.562329573644668568e-02 1.581717183441056634e-02
3.649194528478787863e-02 5.385042674193988438e-03 -1.493365497340793345e-02 9.792456931303270343e-03 -1.142225426682196184e-02 2.868625804393522272e-02 -6.899003268281165419e-03 2.446411222428281421e-03 7.036244864890488747e-03 -1.048542950042377978e-02
-1.869788325255261272e-02 6.459285373363729543e-02 -4.855605988234932419e-02 1.333867810822407692e-02 1.412445477583825588e-03 1.966809299840246647e-02 -2.030043650092275623e-02 9.102037955394057245e-02 -9.973057147669207867e-02 -8.043804436588148114e-04
2.469236374402608222e-02 1.596076691395205416e-02 2.849608817372960984e-02 -2.510954335029089504e-02 2.817253165237103112e-03 1.190602517557198640e-02 -3.751278099020133056e-03 2.409860757228483169e-02 -7.579447038248662838e-02 7.606765081615356541e-03
-8.244595589635504013e-04 2.229755998992212669e-03 6.629231297069602957e-02 1.994629614435665735e-02 -3.579057026885087978e-02 -1.677200482309278845e-02 7.901673805653947058e-02 -5.410975680839798241e-02 -5.135673688876825349e-02 2.513374830689649869e-02
8.060248651847891355e-02 -1.978076179731312265e-02 -4.949962001776386789e-02 5.516159704629390592e-02 1.403009053384088670e-02 8.732648102102795809e-03 -6.731918479162896096e-02 9.494731587054183741e-02 2.060354191690000163e-03 -6.790660814128436640e-02
3.303754115263389871e-03 3.652954260660808724e-04 -2.038034146290280263e-02 1.027136366428547248e-01 -1.368037941039984377e-02 -2.956489137953115590e-02 8.556497335279245053e-03 -1.818736695608100598e-02 -2.153981031192095039e-02 5.811888444488929467e-03
-4.495414172870683574e-03 5.475314190665262447e-03 5.137432491673255865e-03 -2.669185549576146704e-02 2.469735920093486456e-03 -1.828157626192422960e-02 1.971306398402659574e-02 -6.872552369428725112e-03 3.517095006190912310e-02 2.872528775994214953e-02
-2.029795704540660398e-02 -4.962408171163746121e-03 1.455748005819947344e-01 -1.157589308611331295e-02 2.961066683064442727e-03 9.048278742767255564e-03 -5.269310614509566636e-03 4.344329937521687959e-03 -4.981057149332503847e-02 -2.236824480063261816e-02
2.038179333544572897e-02 1.381908065083909017e-02 -4.311450512815085540e-02 2.172697142464790482e-02 2.778357320002697479e-03 -2.561574251118128517e-02 4.498402461153959420e-02 1.501000859907669974e-02 7.633946434688167193e-02 6.658836829738962182e-02
-2.656760953291612687e-02 4.290828798509950005e-03 -2.112410658000246286e-02 2.965211581422876747e-02 1.191238856194089951e-02 1.809654877454951183e-02 -9.561100583694727428e-03 8.045289429221681374e-03 2.454003172521857998e-02 1.127595951550224192e-02
-5.320737535342731639e-02 3.226932738413773594e-02 2.680304471159486793e-02 4.875935216236682718e-02 -4.999568812863764387e-03 -7.891892641563597044e-02 5.163513347551072774e-02 4.319745206681744470e-02 5.588307263126830043e-02 -2.751941648370675314e-02
-5.156337701109869193e-02 -3.238692689384562503e-03 3.319170026143417052e-02 3.198645977244966160e-02 -2.334392381981714726e-02 1.310747306492623387e-01 -8.036061166111103937e-02 -3.179916935083058199e-02 -4.152331509053792252e-02 -1.944041505947187009e-03
3.056681402116792276e-02 -7.925548524099070014e-02 -6.759295883995690424e-02 4.988871021431947467e-02 1.604875600058179932e-02 7.261824444581531368e-02 -5.555229700667181636e-02 7.919214162787734101e-02 1.074684173276123714e-02 -8.127384110083579749e-02
-2.096045529019695611e-02 3.280358336175162072e-03 -2.989135681713669251e-02 1.902620553423923708e-02 -9.323984947173536222e-03 6.559346063493072532e-03 -1.423581421660630175e-02 9.542313491335170650e-03 9.958456955595018645e-02 8.750130596121865473e-03
-7.850606259281781019e-02 -2.171848734948123028e-02 1.056486804367296611e-02 2.039955236743011269e-01 -2.579731642789335685e-02 -1.057288300431193512e-01 -3.134993985815209827e-02 -2.737188308083858112e-03 5.828693803574076793e-02 1.172016837479789020e-02
-4.910864765839628721e-03 8.191653143369612144e-02 7.984891101957747317e-02 -3.287645294380928118e-02 -3.321640167557736445e-02 -5.355160245290403742e-03 -7.182105193000043464e-02 6.363398896227482129e-03 -1.922900070849124787e-02 -1.566703395750350739e-02
-8.583339763529474614e-03 5.362391527426492444e-02 7.524940059039739171e-02 -1.847412200018647144e-02 -3.015798113537809105e-02 2.394369056563033782e-02 3.051803517440940944e-02 1.701018725541490750e-02 -1.331526953192461726e-01 5.252210944988821781e-03
-2.956681924092472227e-02 3.382704722903663586e-02 4.595337521484707533e-02 6.427257262926412695e-02 6.090346270993713534e-02 5.989701358385108448e-02 -8.147780148762182040e-02 2.702855278744326420e-02 4.631641050645177865e-02 -8.432860671913615380e-03
-5.074092448497633662e-03 1.306214958909587276e-01 2.763756656937196160e-02 -1.758683960186551570e-02 -3.205885885066342422e-02 -8.109239802693884308e-03 7.581324692495262051e-03 -1.839115307907478181e-02 -3.836053202924655930e-02 8.287674558027252614e-02
7.462985816533425180e-03 -2.265272367395911382e-02 -2.291531516814247424e-02 -2.018590307365090986e-02 -3.300361535686967968e-02 -8.565655635659735062e-03 -4.000169699427563036e-02 1.443806638541037836e-02 1.157859462311942728e-01 -5.173592056984293447e-03
7.710501193492922019e-03 -2.366459327689214576e-02 -3.806100394532732200e-03 -2.644969000427400616e-02 -5.683602742718984330e-02 1.307455917791611466e-01 6.939780690455134293e-02 -1.573223131338421371e-02 -5.450618976725277870e-02 2.689104260004218303e-02
-3.793527426309928341e-02 -4.021257940033335330e-03 -5.004015740398136403e-02 -1.022384371831690751e-02 -1.810217869722182890e-02 -4.534618897828613521e-02 1.896294497853095173e-01 -4.948656716038506978e-04 1.298357841493281983e-02 -1.436587970224268785e-03
-3.649682831500195707e-02 -3.226036325180094144e-02 -1.200294471263810931e-03 -6.995883290102723751e-02 9.701174476262676427e-02 -2.588773078555411684e-03 -3.258503466876027689e-03 4.524995440867999631e-03 -4.321186310565257836e-03 -7.510204913953885675e-02
5.525500133839245272e-03 -3.449789386192095297e-02 4.938100717231744263e-02 2.370308030180662620e-02 -9.815462034664067248e-02 3.446078777490179518e-02 2.855507516029594239e-03 4.841018510056879776e-02 5.464544104903582000e-02 -5.537098709310271649e-02
-7.642268946599785340e-03 -2.643611140531710105e-03 -2.587645976301711920e-02 -6.143566402613040824e-04 -1.381273954168322354e-02 6.837474223004973498e-03 2.293681961776193080e-03 -6.272865012863064645e-03 8.785312972777688245e-02 1.992902744215617255e-04
-2.199679699274051381e-02 4.756220212866407900e-03 1.119228804375658193e-01 6.034524561943293425e-02 -3.162050935925390244e-02 -9.274249631997718082e-03 -2.163456555809298992e-02 4.811785735783699440e-03 -3.166912772549415611e-02 7.766853549101653681e-03
1.330408091708204857e-02 4.757364574048474765e-02 1.499033343170543854e-02 -5.398864634978724902e-02 -7.690357704671446290e-03 -4.284254877795277971e-02 5.468445430209864858e-03 3.935033338485390865e-03 2.773650444672161319e-02 3.715729752503026118e-02
6.614030581563890010e-02 2.337199558524839099e-02 -4.350508686334426250e-03 2.663733168708940294e-02 -3.014910707443849841e-02 1.259553561469194394e-01 -3.866685630552066377e-02 -4.592153512505460500e-02 1.513225290270326685e-02 -8.961123388733331641e-02
-1.072538274888765360e-02 1.543435666254448606e-02 -6.616886487864831468e-02 2.622007196103007254e-02 -4.441703554572314257e-03 5.031539291635738799e-03 -9.047300051307924362e-03 2.081870668674036529e-01 -7.839434108042049598e-02 -5.520047308726096918e-02
-8.826053521801803525e-02 -6.465848406977059426e-03 -7.526305441067900059e-02 1.643267856707943397e-01 -2.266398866368671619e-02 1.500072248869594727e-01 -5.231618792160896286e-02 -1.543319819957504613e-02 -6.569521515010302848e-02 -2.640922001530389418e-02
-6.779103576753436888e-02 -7.646560139161540093e-02 2.086959125628302589e-02 -8.824895722007741750e-02 -1.827799087803496161e-02 3.293897666691827930e-02 -1.722161179215971755e-02 -6.006653151121530559e-02 -8.457459444070679344e-02 -8.661854464492393935e-02
8.230993791481572286e-02 -3.078413661035274158e-03 8.282102219649194186e-02 -3.942840097373608715e-02 -8.989436834248985819e-02 1.102697848335714229e-02 -7.118279540207865519e-02 -2.649204712701063238e-02 6.083127644888282337e-02 -5.271391776942859625e-02
4.436159597398053878e-02 5.854657036103937118e-02 9.393393022048820984e-02 -3.584138274669229629e-02 5.911783614517192309e-02 2.053271466820221630e-02 -2.354810300104404758e-02 -4.784138096937889939e-02 2.021887356653390838e-02 1.857438343586519103e-02
1.257088498120132770e-02 4.692459443351866544e-02 5.406547169964480426e-02 1.979484673636231623e-02 -6.668356795006437701e-03 -3.862463322303862079e-02 -3.287061595464924740e-02 -2.902112843252236882e-02 -1.767719710166835295e-02 -2.072006351210962244e-02
1.027031969740350853e-01 -1.647119132906387342e-03 3.299828423907590069e-02 2.764483108324302957e-03 4.786435038081923374e-03 -1.554711285743530860e-02 -4.247972799139061034e-02 5.629768010854296033e-03 -6.983444394475661621e-02 6.061986043685190992e-03
7.398681179548688251e-03 1.208098629449699319e-04 2.477501431125643874e-02 7.722097216977942546e-02 -3.166752528343878131e-02 1.812304007807144512e-01 -1.364721615004410929e-02 -3.022909764216243425e-02 -5.061246173873430038e-02 -1.644838880333761577e-01
-1.226944674243187448e-02 -6.534949605877135538e-04 -3.783949869719076958e-02 2.220829830479005562e-02 -4.674285632387503719e-03 3.750089275451989196e-02 -4.214614429524930588e-03 -2.365672449700150035e-03 5.502083409704824207e-02 -1.661491873481178716e-02
-5.669065482628846825e-02 2.902140769857306304e-02 1.423751275805372821e-02 -6.639474578949851324e-02 1.356857786309895869e-02 1.358607453397584625e-02 4.988330318391798884e-02 3.658841549807209659e-02 -3.439940423983093697e-03 1.381350605984600632e-01
1.296432854208616828e-02 -9.756152859026586549e-03 -4.915536477651820391e-02 7.856467390035201410e-04 8.391016160921643471e-03 1.631282319082404814e-02 -6.473740583041245888e-02 1.174520410668322169e-02 5.670469757962068313e-02 8.351129861271233690e-03
-3.229759254853446955e-03 1.702855805999679145e-02 -7.000469532209803447e-02 3.147134009149011452e-02 -2.576630726992720083e-02 -1.847876739400002369e-02 5.947611567858276244e-03 -2.972137664281230413e-02 1.293115852858851000e-01 -1.924512774046395133e-02
-7.228946881633814547e-03 -5.532293399929142513e-03 -9.504084447996202084e-03 3.061415254383738002e-02 2.262270686130726099e-02 -2.866860984965378077e-03 4.526216823288777870e-03 -6.654925229133800378e-03 -5.647879319364459971e-02 8.015826497232692027e-02
2.887509575811983767e-02 7.686082233898839863e-03 -1.403237762257518104e-02 2.308470866872323543e-02 2.520492470058651596e-02 -2.834612441662431870e-02 3.751387450233864551e-02 5.262200683806425409e-03 -8.020799656041527337e-02 1.345257525247794137e-03
-1.604556810509873144e-02 -3.960522505984103749e-03 -5.593287649262260880e-03 4.272486876410584028e-02 1.920327396756970261e-03 -7.072661518368023904e-03 2.820445156036086726e-02 -4.650732121676525929e-03 2.644842650331584444e-02 9.571403856291470919e-03
-1.618718962712283743e-02 1.325988596969163991e-01 2.342191549081284324e-02 9.439670032209733844e-03 4.156279892765373483e-03 2.646593261327121957e-02 1.815345670593796618e-02 -9.309680950645794761e-02 5.063140809624522634e-03 -5.560088344671080401e-02
-2.245525501517021960e-02 -3.648111449391497536e-04 -8.718633638732377691e-03 -2.184819206897761421e-02 -7.190133059797712382e-03 -5.179811820455383631e-03 -1.693928435341817426e-03 8.210143007320236386e-02 3.844789129236307612e-02 -2.466969392373066783e-02
-8.538300748636354354e-02 2.670454463321340552e-02 3.626779180703721198e-03 -7.633937880425240019e-02 3.097157815858581336e-03 2.319257900040289921e-01 -6.081302438475607447e-02 -3.099694324772152808e-03 -1.894248848583580599e-02 -5.389355603435754677e-02
1.689002238822178217e-02 1.754046772491496542e-02 -6.990331897967878676e-03 -1.494431646377438437e-02 -6.602834537366417123e-03 -5.766412495263384397e-02 4.479306735638378945e-03 9.498736016868902787e-03 1.895398757919531892e-04 3.637473553936803466e-02
-7.384610661858607636e-03 2.614997881532052631e-03 -3.697916552810776719e-02 2.928182480275770636e-03 -8.611790461588093859e-02 7.577861121904174227e-03 -2.068548779717664481e-03 2.390251558636799500e-02 -3.873730945762032807e-02 1.449744745913168209e-01
3.140355123614436278e-02 -1.131309509777035302e-02 -5.470602860095697545e-02 5.218826943575170449e-03 4.915109979702504857e-03 1.591986978307010150e-02 -7.764894170701733180e-04 -1.191808302787257350e-02 5.393010459338126728e-02 1.112020583849799432e-02
1.982175144026744953e-02 -1.711165464596480293e-02 2.366303759288628239e-01 -9.377536799073415627e-03 6.881046443508703758e-03 2.836832380044438696e-03 1.466099801338330007e-04 -5.780113291509186846e-02 -1.758416835007024781e-01 2.077254105246851418e-02
1.152802494907285459e-02 -4.911386262257037838e-02 -3.406170896927554481e-02 1.640862123199318678e-02 -1.386275585884506542e-02 -1.122425328503263639e-02 -5.068385326863381751e-03 3.691421706445904838e-02 9.163830511623434483e-02 1.495762289307452607e-02
-1.772593016772833902e-02 -7.270294471829620575e-03 1.429206769080799966e-01 -4.679582379888985039e-02 -7.783913400081035085e-03 2.086918072035807981e-02 -8.101903842983775375e-03 1.588690785250490524e-03 -1.372338420805369053e-01 2.262491676708650382e-02
-2.215833827927526228e-02 -3.761133244343000531e-02 3.007249930763574580e-02 -3.871945672808380784e-02 -4.238719370226889938e-02 1.082344023778496617e-01 -1.024841582797941450e-02 2.456771360039653254e-02 2.307027533650119616e-02 -1.814523671736553365e-02
-9.232591678227916598e-03 -1.496932117716051440e-02 1.051461355529014928e-03 7.046130622709435853e-02 -8.338474153460942104e-03 4.026339074969609820e-03 5.124177494417336658e-03 1.536453742898622778e-02 -3.380036044942105050e-02 1.164623730291683250e-02
4.043079494738355262e-02 -5.378764860555593913e-02 4.168202077932186417e-02 -3.964455873043006007e-02 2.095192394779048228e-02 -3.784182092293980702e-03 -3.307384367115575458e-02 3.317571418357961183e-02 2.503778545628302862e-03 4.116821957677812421e-02
-1.922481815055320301e-02 1.298531321590966695e-02 -3.747832131849771625e-02 -2.501107420194665157e-02 1.569710160582361846e-02 3.027508930817583536e-03 1.280744131020979983e-02 9.745109244207612528e-03 -6.273308797956113347e-02 7.306931872527652749e-02
-2.118593503975516740e-02 3.737039873422785645e-03 -8.427040704733265025e-03 -1.824409541252408271e-02 -2.028026691112320284e-02 -4.740764358581517519e-03 -5.327101407282332744e-03 9.538978588303681852e-03 8.486110561903496829e-02 -1.922790584855069151e-02
1.221057336336661518e-02 -4.245312531394066120e-03 -7.689347502331211372e-03 -7.755905818035421090e-03 1.947545577615093434e-02 4.555877695445623154e-02 1.667739033286711955e-02 -9.333541276102379561e-03 -5.685664650052921210e-02 2.365047389148770829e-02
6.532855182172146681e-04 -6.155539543047879036e-03 6.191209633762353830e-03 -3.877250838901519225e-02 7.188225249616140384e-05 3.718186334006524929e-02 1.855891599534097505e-02 7.464883799823809028e-03 2.911872832181674337e-02 -3.275106092544083358e-03
-2.279870611196873134e-02 7.344910042750649876e-03 -1.968210801589563921e-02 -4.119503386644177145e-02 -4.289910299691210988e-02 -3.508072783718207965e-02 1.938736199173443295e-02 3.670848137230948299e-02 1.221917950942552483e-01 2.741936244607027368e-02
3.333569453691199395e-03 1.188299782461587489e-02 4.030362604574256463e-02 -4.463336509240223293e-02 1.030545891179042439e-01 -1.050482414983524779e-02 -6.450928037007647164e-02 1.246896365018616316e-02 3.193359694065041332e-02 -7.149114503423366351e-02
1.663713708662658414e-02 4.746702342945711105e-03 2.576443215459024716e-02 -6.416089954648197813e-02 3.519425187760392287e-02 -4.902310738824184125e-03 -3.650078659892061310e-03 6.624523475324163579e-02 -2.138742010187921413e-02 -6.502827421163257134e-03
5.101192375383361600e-03 3.235336281650917981e-03 -2.804666874847238853e-02 -1.377073945429173156e-02 -1.952051975833865236e-02 1.699440401426666192e-02 4.866697340335008996e-03 8.630891901327833460e-02 -9.613526283031978772e-03 3.695658677089467929e-03
1.282692817254721743e-02 -4.704222661836370521e-03 -4.343054063046394853e-02 9.931180157286463583e-02 6.950107629264264467e-03 4.441182886752148562e-02 -2.203602869405015333e-02 -7.328668806340686050e-03 -4.892996661500852162e-02 -1.890632462807724165e-02
-1.889129185616206935e-02 -1.376284230988669872e-02 2.529655418798565369e-02 -6.258307062010773358e-02 -4.134530760261872356e-02 -2.243254844156691158e-02 1.531647966835584379e-02 2.139412529127358853e-02 2.737383507580815056e-02 8.544249195499351024e-02
1.616896047019820981e-02 2.419858287421785062e-02 8.294223579295462601e-05 -1.817895909280245817e-02 1.577445079232946135e-01 -1.524980937746423133e-02 -4.897035676606208664e-03 -6.850793974529346964e-02 -5.915693889090926222e-02 -2.222741691056455415e-02
6.091404367006413023e-03 -7.633476668540818341e-03 1.204957073347315104e-02 -1.012380048192434295e-02 3.299387663002824930e-03 1.171862393176065394e-02 -1.492614546539514260e-02 -9.430046141679557931e-03 -1.934883087928641193e-02 7.218908252737199494e-02
1.489574416143023966e-02 2.080955783980834375e-02 -1.296362777125982611e-03 -3.111598560367122637e-03 -9.067740423852929665e-03 -1.421698035956722901e-02 1.313141793857988404e-01 1.349461811542537054e-02 -9.453869992317585902e-02 -1.698905481953442292e-02
2.574078966705410296e-02 -7.281383243229538720e-03 -5.356116935172172688e-02 -1.567738759123625883e-02 9.333486983148915617e-02 1.034814916783843158e-02 1.566065143043066706e-03 7.245051947005667209e-03 1.319244797013214773e-02 -2.784252380199862126e-02
2.742463099956703176e-02 -1.082832578543366751e-02 -4.685481056116087839e-02 -6.524433527892610322e-03 -1.374778525686720654e-01 -2.751516362183819425e-02 1.228703434963491076e-01 8.774374707678885476e-04 -3.913615437260901594e-03 1.153564325261389745e-01
2.887966554861728583e-02 -4.575649811126973089e-03 4.172626479497541785e-02 -3.879641375205819184e-03 -1.603515643516016317e-02 -9.737825258036557699e-03 2.424425568770111061e-02 -1.774702770338420837e-03 -4.562241517779729721e-02 1.422347524890735064e-02
-7.460453436732788579e-06 1.011219468624878493e-02 3.436325358660814039e-02 -3.723616119432952148e-02 3.124465469599599018e-02 7.978166556436459486e-03 2.072340730028186979e-03 1.213240049575710008e-02 1.273320451214404042e-02 -2.033547076431405781e-02
2.913538230552742414e-02 2.087670542395636021e-03 1.795043561437533602e-02 1.488030407647709767e-02 4.807046580049595397e-02 -5.852186580122990117e-03 -5.038291634449653528e-02 2.197918784525801361e-02 -2.600159401387038341e-02 -8.840597733199527519e-02
8.536883605544503748e-03 -9.492132360923158027e-03 3.570735923871305034e-02 -3.462372666553404504e-03 1.855140511034216247e-02 -4.086999732367825253e-03 1.231411404757128646e-02 -6.430983377657178458e-03 3.831207469052028136e-02 4.531529274572413703e-03
-4.775256734105781664e-03 3.785799749104658794e-03 -8.821014384349049053e-02 2.010254641780045426e-01 1.931501618780162230e-02 -2.696051001507823036e-03 -2.805041032885471561e-03 2.176629232351367377e-02 -6.673965507852752665e-02 -1.050806381753792984e-01
1.807029053450672981e-02 5.531804760338492229e-03 -3.661764171673134033e-02 1.032912188770431124e-02 2.043345594858526904e-02 7.314001250791967584e-03 3.185651525025397224e-02 8.572065590805274735e-03 -1.562928792264456357e-02 -8.140299385339892085e-03
-8.620153598483804372e-03 1.398968624503116841e-02 2.372845979529605853e-01 -6.208457618524339250e-02 -1.652937035029296287e-02 1.617963629020845520e-02 -1.850182578318037771e-02 -9.780644062010260265e-02 -1.118240166002523878e-01 2.849554176585644000e-02
1.376808512827502667e-03 -1.596307166910874379e-03 -8.518296888543270065e-03 9.369552439987296338e-03 -1.320403134623216162e-03 -2.172941416577584689e-02 6.093015073874407696e-03 2.566789951419887195e-02 7.274705348721167975e-02 -7.613628620659057544e-02
2.198342120089500501e-02 -1.229109938207907995e-02 -7.325054469467910667e-02 1.712743165712660165e-01 -4.760994619609016515e-02 6.830735622111279437e-02 -1.135838424747069066e-02 -2.998311443880192009e-02 1.971924585379642922e-02 -3.390524229357318869e-02
2.919410727400464402e-03 8.858988655698545739e-03 2.540580651858697150e-02 -6.128345236593746997e-02 -1.535470632620991940e-02 -1.193061119705156846e-02 5.971505252391172414e-03 1.098541325938503094e-01 5.906544123053547590e-02 -1.001819012304925594e-01
-7.021991875770279209e-03 1.289829546041911142e-02 5.063570026742596208e-02 -9.153316438761747303e-03 -5.463376667159374617e-02 7.958190977089346640e-02 2.887900679672442995e-03 2.055693807623402980e-02 8.996056124700375911e-02 -1.071622295392799934e-01
-4.576220672703303766e-02 -4.985039631705921737e-02 7.949496490325054510e-02 1.529527304627958766e-02 1.155336937274451317e-02 1.968267024565076100e-04 -8.281949421373229966e-03 -1.918432581435452686e-02 -2.216583314682429862e-02 3.725756889236264691e-02
9.179510883044222913e-02 2.952817149744844504e-03 1.272320384935286298e-02 -9.407360091106721153e-03 2.356978107194148547e-02 -8.667873479788515759e-03 8.087272406701611141e-03 4.524160170794526425e-02 -2.310771994344506738e-02 -1.055479177746490027e-01
-6.010705017116144133e-02 -1.330380978862823020e-02 -2.340592322376953971e-02 -5.729876768802257599e-04 -2.383105351576131348e-02 -4.222883815096552251e-02 1.835556782687590149e-01 5.128465541013441965e-03 -6.018504532616762714e-02 3.777238684015386035e-03
-1.657730150198113636e-02 8.082757093455093800e-03 -7.667819170088591846e-03 -5.293625512431097274e-02 1.381966326412598870e-03 2.739661991277018982e-02 -3.520045312369649015e-02 4.603163657260896102e-02 4.727209842899221526e-02 4.519336833935393496e-03
-2.423312544105518836e-03 -1.863476593067643974e-02 3.393695633772573356e-02 2.461349163489353481e-02 -1.234850715218901648e-02 -5.180236558991134152e-03 1.713125578410392563e-02 -1.106323057512739565e-02 -3.186190463528012357e-02 2.701231124319515564e-02
-1.681876073690485862e-02 -2.961591922439751196e-02 4.922447542269331455e-02 -4.932705781898274328e-02 -1.456582182506998939e-02 2.244487874270457983e-02 1.696979315483772288e-02 3.983791597727874556e-03 4.166713179275390033e-02 4.278622563749403390e-02
-2.931638803936174181e-02 -6.064537184082965243e-02 -4.963154939986582498e-02 8.623558783325385724e-02 -4.398937661616357520e-02 3.652666136240333150e-02 -6.609411199966064299e-02 1.048272872895392310e-01 -3.657365252286326474e-02 -5.251978817312318026e-02
-4.622531637043192365e-02 3.289332785718916685e-02 -1.230924212902448182e-02 -1.270895342524778690e-02 -3.222349861615103270e-03 -8.020404921684838595e-02 8.168173406576894474e-03 4.060914641612889397e-02 2.909702152776895423e-03 -2.181916341567301243e-03
7.975284987875984333e-02 2.967268651705809793e-02 -2.168473612101594686e-02 -1.253488688443587162e-03 -6.094264476597965191e-02 -2.250383958702533577e-02 -9.077566782888501010e-03 -3.804129717782901710e-02 -1.757449928979492454e-02 -2.462695320187368794e-03
4.123136408902445225e-03 1.581970310685227579e-03 -2.243176343169560414e-03 -1.508329355715850272e-02 -2.882873578580773342e-03 -1.484170140151046735e-03 2.459419176574448220e-03 -5.509473586255073975e-03 7.278470500345583794e-02 3.461412358223969667e-03
1.551762571725265605e-01 2.102509881291128591e-02 -1.031012778626409429e-02 -6.039193745687187337e-03 -1.689330066535527910e-03 -3.126364903943064377e-02 -3.646837090890787253e-02 -2.997152052511115571e-03 1.950837880495309706e-02 -1.643661090640635702e-02
-1.865346117564020082e-03 -1.736536957688003015e-03 7.566162565791348209e-03 -2.144788754898385025e-02 1.278063540424998271e-02 -2.220326907335482686e-02 5.217982772701612246e-04 4.471021322751339046e-03 7.520330075684834858e-02 -5.844112173623259264e-03
-7.422150261385730523e-03 2.536760291779593252e-02 2.905457817503537266e-02 2.471706157623804884e-02 3.835852585564818173e-02 5.639043670630761174e-02 -7.058596974212506987e-03 3.510402115422404240e-02 3.870900862510757295e-02 -5.447963997757122173e-02
1.990567063777461717e-04 -2.003795775739955400e-03 4.686637138110015532e-02 -1.585064034180179438e-02 1.406487685396139511e-02 -1.127614677740648545e-02 1.607410213126762855e-02 5.579718455203276119e-03 1.382407731023838071e-02 2.361525453173121680e-02
-1.202596931204107447e-02 1.318073347953884963e-02 -2.006718910503664001e-03 -6.317815595172571186e-02 -1.979603182020795576e-02 -1.450125773464978549e-02 -2.495721314667769062e-03 -7.981163012274696987e-04 1.185552083884301999e-01 5.883105574351564157e-03
-1.455611551885190643e-03 8.165257224669757175e-03 -1.718703881859977647e-02 1.828566320148273042e-02 2.539819695236939651e-02 4.267317357760841423e-02 1.606372609556033781e-02 2.628544285664179830e-03 -7.392986129451356581e-02 -1.099741965658736133e-03
-4.820018586844426051e-02 -8.083053342497825700e-02 4.377059170437333502e-02 9.039848756071510588e-03 -1.967243746441643334e-02 -2.339455069174561572e-02 -3.988542332474009217e-02 -7.386459152578245257e-02 5.676403537134740857e-02 -4.352653672326253775e-02
7.711495556040391317e-03 8.828258251489999684e-04 2.744188719714296676e-02 3.289926457458716182e-03 -6.578687481227014910e-02 7.860925009116280157e-03 9.616506220358303145e-03 9.745038348867895647e-03 -2.490877475019555656e-02 5.895050143640041818e-02
